tree
version=v3
num_class=1
num_tree_per_iteration=1
label_index=0
max_feature_idx=105
objective=regression
feature_names=APX RH clearSky_dlf clearSky_ulf cloud clouds created humidity mxlD pressure radiation rain snowDepth source_run ssrunoff temp winddeg windspeed sjv_E1A sjv_E1B sjv_E1C sjv_E2A sjv_E2B sjv_E3A sjv_E3B sjv_E3C sjv_E3D sjv_E4A T-15min T-30min T-45min T-60min T-120min T-180min T-240min T-300min T-360min T-420min T-480min T-540min T-600min T-660min T-720min T-780min T-840min T-900min T-960min T-1020min T-1080min T-1140min T-1200min T-1260min T-1320min T-1380min T-1d T-2d T-3d T-4d T-5d T-6d T-7d T-8d T-9d T-10d T-11d T-12d T-13d T-14d IsWeekendDay IsWeekDay IsMonday IsTuesday IsWednesday IsThursday IsFriday IsSaturday IsSunday Month Quarter IsChristmas Is00Hour Is01Hour Is02Hour Is03Hour Is04Hour Is05Hour Is06Hour Is07Hour Is08Hour Is09Hour Is10Hour Is11Hour Is12Hour Is13Hour Is14Hour Is15Hour Is16Hour Is17Hour Is18Hour Is19Hour Is20Hour Is21Hour Is22Hour Is23Hour windspeed_100mExtrapolated windPowerFit
feature_infos=[-9.0200004577636719:83.620002746582031] none none none none none none none none none none none none none none none none none [1.4219999684428331e-05:5.6180000683525577e-05] [1.4279999959398992e-05:5.9720001445384696e-05] [1.3380000382312573e-05:5.8980000176234171e-05] [1.8209999325335957e-05:4.4820000766776502e-05] [1.7719999959808774e-05:4.6299999667098746e-05] [1.2260000403330196e-05:6.1680002545472234e-05] [1.601999974809587e-05:4.9739999667508528e-05] [1.601999974809587e-05:4.9739999667508528e-05] [2.395999945292715e-05:3.2190000638365746e-05] [0:6.0239999584155157e-05] [-7.4699997901916504:26.860000610351563] [-7.4699997901916504:26.860000610351563] [-7.4699997901916504:26.860000610351563] [-7.4699997901916504:26.860000610351563] [-7.4699997901916504:26.860000610351563] [-7.4699997901916504:26.860000610351563] [-7.4699997901916504:26.860000610351563] [-7.4699997901916504:26.860000610351563] [-7.4699997901916504:26.860000610351563] [-7.4699997901916504:26.860000610351563] [-7.4699997901916504:26.860000610351563] [-7.4699997901916504:26.860000610351563] [-7.4699997901916504:26.860000610351563] [-7.4699997901916504:26.860000610351563] [-7.4699997901916504:26.860000610351563] [-7.4699997901916504:26.860000610351563] [-7.4699997901916504:26.860000610351563] [-7.4699997901916504:26.860000610351563] [-7.4699997901916504:26.860000610351563] [-7.4699997901916504:26.860000610351563] [-7.4699997901916504:26.860000610351563] [-7.4699997901916504:26.860000610351563] [-7.4699997901916504:26.860000610351563] [-7.4699997901916504:26.860000610351563] [-7.4699997901916504:26.860000610351563] [-7.4699997901916504:26.860000610351563] [-7.4699997901916504:26.860000610351563] [-7.3600001335144043:26.860000610351563] [-7.3600001335144043:26.860000610351563] [-7.3600001335144043:26.860000610351563] [-7.3600001335144043:26.860000610351563] [-7.3600001335144043:26.860000610351563] [-7.3600001335144043:26.860000610351563] [-5.7933335304260254:26.860000610351563] [-5.8233332633972168:24.003334045410156] [-5.8233332633972168:24.003334045410156] [-5.7800002098083496:26.860000610351563] [-5.7800002098083496:26.860000610351563] [-5.8233332633972168:22.886667251586914] [-5.8233332633972168:25.280000686645508] [0:1] [0:1] [0:1] [0:1] [0:1] [0:1] [0:1] [0:1] [0:1] [5:6] none none [0:1] [0:1] [0:1] [0:1] [0:1] [0:1] [0:1] [0:1] [0:1] [0:1] [0:1] [0:1] [0:1] [0:1] [0:1] [0:1] [0:1] [0:1] [0:1] [0:1] [0:1] [0:1] [0:1] [0:1] none none
tree_sizes=2708 2780 2782 2771 2773 2776 2781 2786 2799 2792 2811 2790 2785 2791 2819 2785 2794 2800 2820 2802 2796 2834 2821 2803 2832 2844 2815 2823 2843 2832 2827 2818 2819 2820 2811 2819 2836 2799 2815 2832 2788 2828 2814 2804 2814 2829 2812

Tree=0
num_leaves=31
num_cat=0
split_feature=26 28 55 28 28 28 20 60 67 28 65 28 55 26 21 60 28 52 28 59 55 67 26 0 21 61 18 64 28 58
split_gain=288470 48560.5 24522.9 15099 9223.59 6439.53 4763.38 3405.93 3357.71 3344.77 2974.18 2529.69 2654.75 2819.05 3631.38 2488.81 1650.35 1516.73 1416.96 1343.71 1278.65 1203.07 1095.41 1089.02 1075.95 899.843 857.689 856.355 761.114 760.738
threshold=2.7404999855207283e-05 8.0166668891906756 5.4749999046325692 15.554999828338625 0.085000000894069686 1.1566666364669802 3.4040000173263259e-05 9.1933336257934588 5.6216666698455819 -3.2483333349227901 22.493332862854007 11.168333053588869 10.38499975204468 3.1325000236392959e-05 2.9925000490038659e-05 1.1766666173934939 19.038333892822269 -5.3883333206176749 4.2583334445953378 7.5383334159851083 6.4183332920074472 -0.10500000044703482 3.046500023629051e-05 40.739999771118171 3.0814999263384386e-05 8.3499999046325701 3.3995000194408938e-05 10.210000038146974 4.9549999237060556 -4.6116666793823233
decision_type=2 8 8 10 10 10 2 2 10 8 10 8 8 2 2 2 10 10 10 10 10 10 2 2 2 10 2 10 10 8
left_child=4 5 7 6 9 -2 10 17 25 -1 11 -4 13 19 -15 29 -5 23 -6 -13 26 -14 24 -3 -23 -8 -17 -10 -7 -11
right_child=1 2 3 16 18 28 8 -9 27 15 -12 12 21 14 -16 20 -18 -19 -20 -21 -22 22 -24 -25 -26 -27 -28 -29 -30 -31
leaf_value=5.7323632108073692 6.036966935222102 6.2477163223578405 7.2211539808541119 7.8903816645196798 6.3595050255844106 6.5785533253941981 6.4984222157115612 7.2277434539784871 7.0884098485072435 5.7726240933495987 6.3780040658152712 6.9609266548792403 7.3131349301642752 6.0443699984201 7.4966553517477408 6.1278210408907601 8.249419605977776 7.1523366623485956 6.7825217041794632 7.5221016659883526 6.8091199905645867 7.5650146482936442 7.6876358131650537 6.6545497122553616 7.1225755628498773 7.0722207759122968 6.6166949953998007 7.4140867834447519 6.8523231399343691 5.9841604632436027
leaf_weight=529 196 109 255 456 245 180 75 108 115 203 23 50 134 36 33 349 178 40 117 291 35 655 1074 166 60 43 40 271 233 1046
leaf_count=529 196 109 255 456 245 180 75 108 115 203 23 50 134 36 33 349 178 40 117 291 35 655 1074 166 60 43 40 271 233 1046
internal_value=6.88421 7.34315 7.46491 7.54635 6.02844 6.50899 7.45581 6.74313 7.17435 5.95154 7.51014 7.5202 7.55289 7.32187 6.73894 6.02084 7.99118 6.57698 6.49623 7.43982 6.23018 7.60214 7.62379 6.4933 7.52789 6.70752 6.17809 7.31706 6.733 5.94978
internal_weight=0 4781 4172 3749 2564 609 3115 423 504 2202 2611 2588 2333 410 69 1673 634 315 362 341 424 1923 1789 275 715 118 389 386 413 1249
internal_count=7345 4781 4172 3749 2564 609 3115 423 504 2202 2611 2588 2333 410 69 1673 634 315 362 341 424 1923 1789 275 715 118 389 386 413 1249
shrinkage=1


Tree=1
num_leaves=31
num_cat=0
split_feature=26 28 55 28 28 28 20 67 28 60 65 60 55 60 77 65 55 28 28 52 55 28 0 28 63 28 57 70 59 65
split_gain=233661 39334 19863.6 12238 7504.32 5288.34 3930.78 2884.07 2789.58 2766.71 2418.64 2040.04 1959.38 2377.78 2586.12 1869.02 1949.19 1555.62 1460.44 1204.33 1062.42 998.504 885.252 871.673 806.372 805.369 796.159 752.648 736.815 732.786
threshold=2.7404999855207283e-05 8.0166668891906756 5.4749999046325692 15.403333187103273 0.61500000953674328 0.085000000894069686 3.3704998713801622e-05 5.3716666698455819 -3.1750000715255733 8.5083336830139178 22.493332862854007 1.1766666173934939 15.091666698455812 14.920000076293947 5.5000000000000009 14.780000209808351 10.516666889190676 13.093333244323732 19.439999580383304 -5.3883333206176749 3.2583333253860478 4.2583334445953378 40.739999771118171 12.97166681289673 6.0383334159851083 4.0650000572204599 9.1933336257934588 1.0000000180025095e-35 10.113333225250246 13.658333301544191
decision_type=2 8 8 10 10 10 2 10 8 2 10 2 8 2 2 10 10 8 10 10 10 10 2 8 8 10 8 2 8 10
left_child=4 5 9 6 8 -2 10 -8 -1 19 12 -10 13 14 -4 26 -17 -14 -5 22 -13 -6 -3 -15 -11 -7 -16 -25 -9 -19
right_child=1 2 3 18 21 25 7 28 11 24 -12 20 17 23 15 16 -18 29 -20 -21 -22 -23 -24 27 -26 -27 -28 -29 -30 -31
leaf_value=-1.0335783598607757 -0.81123591110110282 -0.58647288760205485 0.54030451922011025 0.90905518350147063 -0.45453809542711393 -0.35976417532988958 -0.14891762183166096 0.18521331447091971 -0.83724303679490419 -0.13058706846088172 -0.45558301262233569 -0.67199737948908556 0.40263602138426952 0.38837633391744214 0.038240904241519158 -0.71700997540825295 0.12095613999520281 0.80494823941148652 1.2735904508357425 0.26165205104010447 -0.30147486377396798 -0.091517126713043614 -0.21385704955551776 0.74200341217870536 0.4378126907965233 -0.065021466229451833 0.49032401990931052 0.40778015327250849 0.47591881446707518 0.62066278582844203
leaf_weight=542 170 106 443 525 215 133 126 121 1258 35 23 331 173 114 53 38 103 532 139 35 101 117 160 458 87 306 147 79 312 363
leaf_count=542 170 106 443 525 215 133 126 121 1258 35 23 331 173 114 53 38 103 532 139 35 101 117 160 458 87 306 147 79 312 363
internal_value=0 0.413044 0.522632 0.595926 -0.770189 -0.337693 0.512105 0.272154 -0.83617 -0.126965 0.565206 -0.772859 0.574586 0.498257 0.380958 0.173949 -0.104879 0.677143 0.985366 -0.289785 -0.585371 -0.326606 -0.362343 0.639519 0.274747 -0.154317 0.370522 0.692835 0.394682 0.730205
internal_weight=0 4781 4172 3749 2564 609 3085 559 2232 423 2526 1690 2503 1435 784 341 141 1068 664 301 432 332 266 651 122 439 200 537 433 895
internal_count=7345 4781 4172 3749 2564 609 3085 559 2232 423 2526 1690 2503 1435 784 341 141 1068 664 301 432 332 266 651 122 439 200 537 433 895
shrinkage=0.1


Tree=2
num_leaves=31
num_cat=0
split_feature=26 28 55 28 28 28 56 60 60 28 65 55 28 62 55 77 74 59 28 52 28 66 41 60 77 65 70 28 64 24
split_gain=189265 31874.5 16118.1 9633.28 6097.94 5023.22 3467.48 4114.03 2286.93 2145.26 2021.09 1797.38 1424.25 1134.21 1084.7 1395.92 1562.49 1531.34 1031.29 1030.05 1002.75 977.409 936.041 912.21 853.813 822.899 1188.06 810.311 765.3 773.566
threshold=2.7404999855207283e-05 8.9849996566772479 5.4749999046325692 16.046666145324711 -0.26333333551883692 1.1566666364669802 10.34833335876465 9.5450000762939471 9.1933336257934588 -4.0633332729339591 22.493332862854007 -0.24999999254941938 12.483333110809328 -1.1050000190734861 14.946666717529299 5.5000000000000009 1.0000000180025095e-35 15.151666641235353 4.0650000572204599 -5.3883333206176749 20.914999961853031 -1.9950000047683714 16.251667022705082 4.3866665363311776 5.5000000000000009 14.493333339691164 1.0000000180025095e-35 5.8916666507720956 18.823333740234379 3.8950000089243992e-05
decision_type=2 8 8 10 10 10 8 2 2 8 10 10 8 10 8 2 2 8 10 10 10 10 8 2 2 10 2 10 10 2
left_child=4 5 8 6 9 -2 7 22 19 -1 12 -11 -8 -14 15 -15 17 25 -6 24 -5 -13 -4 -16 -3 -17 -27 -7 29 -9
right_child=1 2 3 20 18 27 10 28 -10 11 -12 21 13 14 23 16 -18 -19 -20 -21 -22 -23 -24 -25 -26 26 -28 -29 -30 -31
leaf_value=-0.96278395349553869 -0.68738174313793377 -0.1304580572476754 0.45723639130592347 0.87424044323151995 -0.43898377665578209 -0.21458584181365958 0.34724773520225699 0.36955311753055353 0.28481510428137313 -0.77153908628665979 -0.39853347332581235 -0.71486605608310461 0.91967706392099569 0.58543010596185929 -0.030684287548065188 0.23136262992370088 0.77611377988542829 0.51058983859335283 -0.088455493775287983 0.26731994327376868 1.3061212094624839 -0.42261778918827891 -0.16272806501424408 0.6522002683880409 -0.48396962468978022 0.079397646903991703 -0.80244209224527541 0.042912797015548371 -0.12964321012082308 0.6246303825193773
leaf_weight=416 196 130 28 517 269 249 319 336 107 1285 23 195 91 588 20 130 70 141 122 34 60 277 187 892 144 50 22 240 23 184
leaf_count=416 196 130 28 517 269 249 319 336 107 1285 23 195 91 588 20 130 70 141 122 34 60 277 187 892 144 50 22 240 23 184
internal_value=0 0.37174 0.477331 0.543938 -0.69317 -0.259649 0.47419 0.288249 -0.113463 -0.758587 0.534268 -0.71024 0.543504 0.574744 0.558336 0.486461 0.345556 0.257686 -0.329612 -0.251826 0.91915 -0.543356 -0.0819885 0.637225 -0.316245 0.0811549 -0.190053 -0.0882061 0.434844 0.459811
internal_weight=0 4781 4096 3681 2564 685 3104 758 415 2173 2346 1757 2323 2004 1913 1001 413 343 391 308 577 472 215 912 274 202 72 489 543 520
internal_count=7345 4781 4096 3681 2564 685 3104 758 415 2173 2346 1757 2323 2004 1913 1001 413 343 391 308 577 472 215 912 274 202 72 489 543 520
shrinkage=0.1


Tree=3
num_leaves=31
num_cat=0
split_feature=26 28 55 28 28 28 62 58 28 0 60 28 65 60 55 63 56 0 26 28 55 28 60 65 67 26 23 72 62 63
split_gain=153305 25862.4 13055.9 8104.84 4979.44 3612.06 2945.47 3555.58 2049.98 1855.86 1827.7 1592.66 1715.6 1578.87 1160.79 1876.29 1027.63 943.357 909.238 861.272 822.265 769.67 737.892 861.268 721.01 710.384 686.386 747.212 908.648 647.42
threshold=2.7404999855207283e-05 8.0166668891906756 5.4749999046325692 16.173333168029789 1.4950000047683718 -1.2866666316986082 9.4066667556762713 8.3200001716613787 -2.6983333826065059 57.704999923706062 8.5083336830139178 11.625000000000002 22.493332862854007 1.1766666173934939 10.516666889190676 18.843333244323734 12.829999923706056 37.090000152587898 3.1384999601868919e-05 3.8249999284744267 6.4183332920074472 20.914999961853031 22.385000228881839 15.926666736602785 -2.660000085830688 2.6404999516671527e-05 4.3375001041567891e-05 1.0000000180025095e-35 13.775000095367433 5.681666612625123
decision_type=2 8 8 10 10 10 8 8 8 2 2 8 10 2 8 10 8 2 2 10 10 10 2 10 10 2 2 2 10 8
left_child=4 5 10 6 8 -2 7 -4 -1 11 17 -8 14 24 15 16 18 -3 -13 -7 -15 -5 23 26 -10 -26 -16 -28 -29 -12
right_child=1 2 3 21 -6 19 9 -9 13 -11 29 12 -14 20 22 -17 -18 -19 -20 -21 -22 -23 -24 -25 25 -27 27 28 -30 -31
leaf_value=-0.82096050310134894 -0.76327019161429288 -0.61417678429020783 -0.19670987534900286 0.79605442864554277 -0.20722267843761244 -0.32979488517581063 0.24498829669508107 0.38283518168774361 -0.75723531902060059 -0.087683075441358005 -0.2088253699519016 0.3592169583560183 -0.35868013423422113 -0.48972455211649318 0.52202119325098095 -0.32159832977765318 0.62715681617623131 -0.15277858382097526 -0.29083129962285365 -0.053134886586760847 0.0090846201197968598 1.1755091206232708 0.99028404586844987 0.40855556094806239 -0.63623059978330043 -0.29784446959046351 0.61696383158665113 0.67793741284347164 1.4250371615091959 0.34609337537598456
leaf_weight=650 121 54 157 490 258 176 271 325 533 60 27 208 23 403 995 37 151 247 24 312 36 60 36 429 615 69 415 41 27 95
leaf_count=650 121 54 157 490 258 176 271 325 533 60 27 208 23 403 995 37 151 247 24 312 36 60 36 429 615 69 415 41 27 95
internal_value=0 0.334566 0.423427 0.482848 -0.623853 -0.274183 0.421882 0.194062 -0.670467 0.462298 -0.103218 0.474717 0.50081 -0.611396 0.509176 0.358426 0.42412 -0.235554 0.291971 -0.152914 -0.44882 0.837449 0.541762 0.533295 -0.670041 -0.602095 0.569501 0.667311 0.97458 0.223283
internal_weight=0 4781 4172 3749 2564 609 3199 482 2306 2717 423 2657 2386 1656 2363 420 383 301 232 488 439 550 1943 1907 1217 684 1478 483 68 122
internal_count=7345 4781 4172 3749 2564 609 3199 482 2306 2717 423 2657 2386 1656 2363 420 383 301 232 488 439 550 1943 1907 1217 684 1478 483 68 122
shrinkage=0.1


Tree=4
num_leaves=31
num_cat=0
split_feature=26 28 55 28 28 20 28 60 28 67 55 77 24 26 28 55 57 60 28 23 28 28 62 65 26 51 65 59 67 62
split_gain=124177 21000.2 10669.7 6802.03 4130.26 2761.78 2609.97 1621.33 1599.76 1540.23 1368.38 1772.45 2470.71 1341 1246.84 1103.51 1060.94 954.262 952.264 944.374 906.761 777.42 765.16 736.056 724.966 719.145 651.543 622.079 612.833 589.21
threshold=2.7404999855207283e-05 7.3116667270660409 5.4749999046325692 14.641666889190676 -0.26333333551883692 3.4040000173263259e-05 -1.2866666316986082 2.1483334302902226 8.9849996566772479 7.4433333873748788 15.241666316986086 5.5000000000000009 4.5325001337914734e-05 3.174500125169289e-05 18.211667060852054 0.20166666805744174 17.9466667175293 11.234999656677248 13.698333263397219 4.9860000217449858e-05 -4.3666665554046622 5.3550000190734872 12.669999599456789 10.498332977294924 2.6404999516671527e-05 13.154999732971193 16.348333358764652 14.641666889190676 14.673333168029787 7.3250000476837167
decision_type=2 8 8 10 10 2 10 2 10 10 8 2 2 2 10 10 10 2 8 2 8 10 8 8 2 8 10 10 8 8
left_child=4 6 8 5 7 10 -2 20 15 23 11 19 13 17 -5 -3 -14 26 -12 -4 -1 -6 -17 -7 -22 -9 -13 -19 -29 -27
right_child=1 2 3 14 21 9 -8 25 -10 -11 18 12 16 -15 -16 22 -18 27 -20 -21 24 -23 -24 -25 -26 29 -28 28 -30 -31
leaf_value=-0.79975159994342881 -0.68694317436907903 -0.43612348134750906 0.40017539109342543 0.60461018641493214 -0.3303890956125049 -0.29585926315706707 -0.16200299319445274 -0.67803768195487846 0.3242425124111929 0.26358282829287655 0.30816272737596329 0.12237225317100926 -0.53271918978009913 0.7376955563022245 0.87252256935208694 -0.13413360458821202 0.24026662157132078 0.20639832884589851 0.54481545797349873 0.70400584214482431 -0.6406970352506286 0.029584477197479558 0.3653748561938604 0.15434311085768665 -0.39260593355857126 -0.40487508783243364 -0.44399215755639254 0.65557575895462517 0.29837363318113957 -0.0078906229800648157
leaf_weight=342 121 115 662 536 317 92 436 81 76 347 216 82 56 62 257 207 26 248 799 121 1355 74 36 60 129 221 27 81 118 45
leaf_count=342 121 115 662 536 317 92 436 81 76 347 216 82 56 62 257 207 26 248 799 121 1355 74 36 60 129 221 27 81 118 45
internal_value=0 0.301109 0.377215 0.430998 -0.561468 0.362086 -0.276038 -0.615306 -0.0924515 0.147304 0.404991 0.34376 0.228136 0.29657 0.691437 -0.180912 -0.287626 0.24738 0.494454 0.447127 -0.65296 -0.262261 -0.0601324 -0.118148 -0.619131 -0.417157 -0.0179198 0.312073 0.443767 -0.337716
internal_weight=0 4781 4224 3790 2564 2997 557 2173 434 499 2498 1483 700 618 793 358 82 556 1015 783 1826 391 243 152 1484 347 109 447 199 266
internal_count=7345 4781 4224 3790 2564 2997 557 2173 434 499 2498 1483 700 618 793 358 82 556 1015 783 1826 391 243 152 1484 347 109 447 199 266
shrinkage=0.1


Tree=5
num_leaves=31
num_cat=0
split_feature=26 28 62 58 28 28 28 67 58 0 26 65 55 20 59 28 55 40 67 77 23 56 64 77 28 84 28 48 57 0
split_gain=100583 17132.9 8703.98 5462.78 4113.21 3369.19 2828.66 1534.48 1508.47 1298.84 1178.25 1079.75 1112.54 1378.81 1165.57 1001.73 1000.48 671.753 616.112 651.57 604.04 601.721 595.35 587.604 587.556 566.859 556.512 554.209 507.823 487.264
threshold=2.7404999855207283e-05 8.9849996566772479 9.6183333396911639 9.6366662979125994 16.230000495910648 1.8949999809265139 2.7683333158493046 -2.660000085830688 1.5833333730697634 57.704999923706062 3.0774999686400413e-05 22.493332862854007 10.38499975204468 1.6664999748172708e-05 12.423333644866945 13.093333244323732 -2.4583333730697627 19.638333320617679 16.465000152587894 5.5000000000000009 4.7315001211245551e-05 5.2633335590362558 -0.16833333671092984 5.5000000000000009 -1.2866666316986082 1.0000000180025095e-35 21.411666870117191 14.125000000000002 17.241666793823246 38.969999313354499
decision_type=2 8 8 8 10 10 10 10 10 2 2 10 8 2 10 8 8 8 8 2 2 8 8 2 10 2 10 8 10 2
left_child=5 6 3 16 9 7 24 22 25 11 21 12 13 -4 29 -14 -3 -18 20 -20 -17 -5 -1 28 -2 -9 -6 -10 -22 -15
right_child=1 2 4 10 26 -7 -8 8 27 -11 -12 -13 15 14 -16 18 17 -19 19 -21 23 -23 -24 -25 -26 -27 -28 -29 -30 -31
leaf_value=-0.67909266395143553 -0.61824884651121037 -0.70853910173688617 -0.32813042579470458 -0.16127600473601644 0.65108723745703967 -0.13751359971543767 -0.037852322088939877 -0.5463407735040412 -0.50275786014066803 -0.071244042133912444 0.5440639329130198 -0.2976989559505297 0.2706716513045091 -0.1955489673784801 0.42192793974760345 0.45032567606229174 0.22736921094003179 -0.19660841044406668 0.50883467564590612 0.24818320574514308 0.63888776833670491 0.25555045053348752 -0.49342093284774036 0.40100542222676072 -0.31148282451800602 -0.27284895130773873 1.0091726104418437 -0.18025506707953243 1.0780147206398749 0.19312872029572942
leaf_weight=754 121 35 37 41 453 227 435 1000 72 64 147 23 362 42 312 1081 42 339 153 257 175 223 224 92 129 82 48 205 31 139
leaf_count=754 121 35 37 41 453 227 435 1000 72 64 147 23 362 42 312 1081 42 339 153 257 175 223 224 92 129 82 48 205 31 139
internal_value=0 0.270998 0.348413 0.0585891 0.421733 -0.505321 -0.191905 -0.541047 -0.472307 0.374011 0.31716 0.384549 0.390402 0.260627 0.304814 0.422379 -0.196874 -0.149871 0.453076 0.345451 0.485075 0.190816 -0.636567 0.611129 -0.459958 -0.525614 0.685395 -0.264083 0.70497 0.102938
internal_weight=0 4781 4096 827 3269 2564 685 2337 1359 2768 411 2704 2681 530 493 2151 416 381 1789 410 1379 264 978 298 250 1082 501 277 206 181
internal_count=7345 4781 4096 827 3269 2564 685 2337 1359 2768 411 2704 2681 530 493 2151 416 381 1789 410 1379 264 978 298 250 1082 501 277 206 181
shrinkage=0.1


Tree=6
num_leaves=31
num_cat=0
split_feature=26 28 55 28 59 28 28 60 28 63 55 67 55 77 0 77 0 63 56 23 28 26 56 56 28 65 58 54 63 61
split_gain=81472.4 14021.8 7224.15 3798.91 2976.1 2840.12 1412.84 1397.96 1397.96 1310.99 1242.78 1227.71 1159.2 1144.84 933.691 878.336 725.005 707.407 1033.13 673.205 654.087 650.907 591.428 545.883 536.235 525.417 496.717 457.12 449.62 408.142
threshold=2.7404999855207283e-05 6.6366667747497567 8.5983333587646502 16.046666145324711 12.840000152587892 -0.26333333551883692 11.493333339691164 14.594999790191652 -1.2866666316986082 8.3000001907348651 14.946666717529299 -3.6966667175292964 -0.73000001907348622 5.5000000000000009 40.739999771118171 5.5000000000000009 38.165000915527351 4.0816667079925546 0.085000000894069686 5.1134999011992484e-05 7.9083333015441903 2.5704999643494378e-05 13.041666984558107 14.675000190734865 18.446665763854984 18.748332977294925 -4.5166668891906729 -4.9083333015441886 18.843333244323734 1.2733333110809328
decision_type=2 8 8 10 10 10 10 2 10 10 10 10 10 2 2 2 2 8 10 2 10 2 8 8 10 10 8 10 10 10
left_child=5 8 4 7 6 11 14 10 -2 -9 13 -1 26 -4 15 -3 28 -15 -19 -18 -7 -14 -6 -16 -5 -20 -13 -23 -11 -17
right_child=1 2 3 24 22 20 -8 9 -10 16 -12 12 21 17 23 29 19 18 25 -21 -22 27 -24 -25 -26 -27 -28 -29 -30 -31
leaf_value=-0.62385683375925294 -0.55642397566275159 -0.061322520458943222 0.29266833981522655 0.52751459567635151 0.25289859522754948 -0.23900993558117595 0.40128111777634462 0.63603391251479735 -0.16512691077396965 0.31734686741082552 0.36613435484542273 -0.63247679357402153 -0.45067223270216261 -0.51158531069755553 -0.069117848167599985 -0.12973483502864838 0.40998173264583332 0.38388275688456508 0.054701288853734487 0.82417100418445688 0.3106805474861809 -0.14197060655181606 0.61865180049623758 0.36738267723290674 0.72873463577457842 -0.36583249801487638 -0.47316182239489318 -0.46785331205888236 0.067765880200923209 -0.64196216429982877
leaf_weight=581 121 73 474 324 210 368 58 198 372 513 635 252 211 20 378 20 449 97 298 43 23 198 56 31 224 33 876 55 84 70
leaf_count=581 121 73 474 324 210 368 58 198 372 513 635 252 211 20 378 20 449 97 298 43 23 198 56 31 224 33 876 55 84 70
internal_value=0 0.243898 0.301967 0.368677 0.049421 -0.454789 -0.0690031 0.322222 -0.261165 0.399337 0.25848 -0.499433 -0.454025 0.184336 -0.116689 -0.319071 0.356302 0.0697175 0.0968812 0.446181 -0.206675 -0.320978 0.329899 -0.0360335 0.609765 0.012775 -0.508753 -0.212815 0.28223 -0.528134
internal_weight=0 4781 4288 3392 896 2564 630 2844 493 1287 1557 2173 1592 922 572 163 1089 448 428 492 391 464 266 409 548 331 1128 253 597 90
internal_count=7345 4781 4288 3392 896 2564 630 2844 493 1287 1557 2173 1592 922 572 163 1089 448 428 492 391 464 266 409 548 331 1128 253 597 90
shrinkage=0.1


Tree=7
num_leaves=31
num_cat=0
split_feature=26 28 62 58 28 28 28 67 0 28 26 65 55 70 56 71 28 77 55 58 67 56 85 67 28 57 77 20 77 28
split_gain=65992.7 11359.9 5997.64 3775.67 2734.83 2315.33 1924.29 1059.41 1016.1 832.147 822.406 814.152 745.599 1125.59 886.859 1152.12 784.357 755.534 745.163 608.319 632.129 562.156 520.061 493.469 483.944 432.823 422.211 421.03 420.859 399.411
threshold=2.7404999855207283e-05 8.9849996566772479 9.6183333396911639 9.6366662979125994 16.818333625793461 0.61500000953674328 2.7683333158493046 5.4733331203460702 57.704999923706062 -4.0633332729339591 3.0774999686400413e-05 22.493332862854007 10.38499975204468 1.0000000180025095e-35 12.355000019073488 1.0000000180025095e-35 13.698333263397219 5.5000000000000009 -2.3449999094009395 -4.9733333587646475 -5.1233334541320792 7.366666555404664 1.0000000180025095e-35 16.980000495910648 7.9083333015441903 -5.6983332633972159 5.5000000000000009 3.3925000025192282e-05 5.5000000000000009 23.060000419616703
decision_type=2 8 8 8 10 10 10 10 2 8 2 10 8 2 8 2 8 2 10 8 10 10 2 8 10 10 2 2 2 10
left_child=5 6 3 18 8 7 22 9 11 -1 26 12 13 14 15 27 -14 -15 -3 -11 -21 -22 -2 -18 -7 -20 -5 -4 -25 -6
right_child=1 2 4 10 29 24 -8 -9 -10 19 -12 -13 16 17 -16 -17 23 -19 25 20 21 -23 -24 28 -26 -27 -28 -29 -30 -31
leaf_value=-0.58692861906017169 -0.43862331783127895 -0.48429748679045592 0.28795630816676193 0.23625899879159507 0.56087988348444928 -0.19585790111409038 -0.03036073831498794 -0.10180789306326661 -0.085104098566807812 -0.61375040209587706 0.4464965779207597 -0.27462758810623833 0.22792064084697072 0.20184444284439085 0.4369124322980244 -0.49082926321029668 0.40261027338716326 -0.53702932019387528 0.32688724767594113 -0.64967625233733539 -0.40202889546712473 0.050385989085771146 -0.032454662951263223 0.4160595748240386 0.27961250517679298 -0.14128187899885761 -0.037031274743196445 -0.0055153883004095405 0.184130755810197 0.98138256072998054
leaf_weight=415 213 64 207 182 384 309 435 86 64 162 147 23 436 25 187 25 1461 31 21 103 1438 28 37 123 23 331 82 64 215 24
leaf_count=415 213 64 207 182 384 309 435 86 64 162 147 23 436 25 187 25 1461 31 21 103 1438 28 37 123 23 331 82 64 215 24
internal_value=0 0.219509 0.282545 0.0419623 0.343409 -0.40931 -0.157423 -0.44596 0.308868 -0.459751 0.256928 0.317883 0.322795 0.217225 0.26643 0.158727 0.348255 -0.207175 -0.17042 -0.429261 -0.410212 -0.393388 -0.37851 0.377419 -0.162919 -0.113351 0.151373 0.218649 0.268531 0.585615
internal_weight=0 4781 4096 827 3269 2564 685 2232 2861 2146 411 2797 2774 539 483 296 2235 56 416 1731 1569 1466 250 1799 332 352 264 271 338 408
internal_count=7345 4781 4096 827 3269 2564 685 2232 2861 2146 411 2797 2774 539 483 296 2235 56 416 1731 1569 1466 250 1799 332 352 264 271 338 408
shrinkage=0.1


Tree=8
num_leaves=31
num_cat=0
split_feature=26 28 20 28 28 64 84 28 63 77 56 65 23 57 24 28 58 55 28 58 59 59 66 57 60 28 64 58 28 26
split_gain=53454.1 9329.4 5085.32 2652.53 1920.83 1750.76 1439.63 990.72 891.848 1169.99 1438.11 1295.13 1177.38 1043.23 1444.91 889.242 852.172 750.688 723.393 629.602 648.232 586.974 570.422 567.56 513.262 509.495 492.951 499.102 457.378 411.335
threshold=2.7404999855207283e-05 6.243333339691163 3.3704998713801622e-05 15.403333187103273 1.8949999809265139 10.210000038146974 1.0000000180025095e-35 -2.4633333683013912 0.39666667580604559 5.5000000000000009 0.085000000894069686 3.2516666650772099 4.7315001211245551e-05 17.9466667175293 4.5325001337914734e-05 -1.2866666316986082 1.2516666650772097 -2.4583333730697627 10.585000038146974 13.550000190734865 10.241666316986086 10.543333530426027 -1.5950000286102293 16.439999580383304 15.201666355133058 11.493333339691164 -4.0650000572204581 -4.9733333587646475 19.439999580383304 3.1899999157758436e-05
decision_type=2 8 2 10 10 8 2 8 10 2 10 10 2 8 2 10 8 8 10 8 8 10 10 10 2 10 8 10 10 2
left_child=4 15 3 6 7 17 8 -1 21 12 -11 -12 -10 14 18 -2 26 -4 19 -13 -21 -3 -18 24 -14 -19 -9 -28 -5 -23
right_child=1 2 5 28 -6 -7 -8 16 9 10 11 13 23 -15 -16 -17 22 25 -20 20 -22 29 -24 -25 -26 -27 27 -29 -30 -31
leaf_value=-0.49553541754632757 -0.45994032540104607 0.01248578168451786 -0.57209177334462447 0.44007584666852329 -0.090662546865724128 0.18059254735402447 -0.28495405012120806 -0.55926219125588739 0.26336290615876601 0.44411240842296851 0.4127453406089665 -0.10745040496373251 0.34084029010234351 0.26877114136943653 -0.44843784437097356 -0.14511070295266529 -0.37673337966546244 -0.09733975923590707 0.28410952703435294 -0.2766795035983835 0.18636328001047259 0.47903168532066048 -0.14504933888877267 0.8304457133136145 0.62738964909930595 0.26831702978483268 -0.56161034374390961 -0.34624423227127921 0.64564390439781361 0.90854491657680936
leaf_weight=694 121 23 31 489 227 434 48 162 974 180 148 219 195 248 58 347 174 411 129 35 222 128 273 41 92 42 122 912 139 27
leaf_count=694 121 23 31 489 227 434 48 162 974 180 148 219 195 248 58 347 174 411 129 35 222 128 273 41 92 42 122 912 139 27
internal_value=0 0.197558 0.243573 0.300037 -0.368379 0.0347549 0.257927 -0.395354 0.267511 0.252352 0.182792 0.138375 0.318546 0.0938015 0.0283529 -0.226509 -0.353038 -0.0960169 0.0740617 0.017137 0.123303 0.483899 -0.235235 0.482415 0.432696 -0.0634378 -0.397067 -0.371655 0.485576 0.55385
internal_weight=0 4781 4313 3395 2564 918 2767 2337 2719 2541 1239 1059 1302 911 663 468 1643 484 605 476 257 178 447 328 287 453 1196 1034 628 155
internal_count=7345 4781 4313 3395 2564 918 2767 2337 2719 2541 1239 1059 1302 911 663 468 1643 484 605 476 257 178 447 328 287 453 1196 1034 628 155
shrinkage=0.1


Tree=9
num_leaves=31
num_cat=0
split_feature=26 28 62 64 28 28 28 0 55 28 67 52 55 65 70 77 71 20 58 24 64 56 28 28 55 59 0 0 65 57
split_gain=43297.8 7556.81 4323.1 2522.98 1978.96 1592.04 982.643 902.705 865.944 736.158 662.757 658.675 622.221 625.142 1229.72 1150.2 668.948 587.144 508.563 478.028 474.131 462.254 443.781 437.191 432.421 430.098 364.683 358.651 462.57 394.6
threshold=2.7404999855207283e-05 6.243333339691163 9.6183333396911639 11.409999847412111 16.818333625793461 -1.5383332967758176 10.879999637603762 57.704999923706062 -4.5650000572204581 0.085000000894069686 4.6600000858306894 -5.3883333206176749 0.40666666626930242 15.075000286102297 1.0000000180025095e-35 5.5000000000000009 1.0000000180025095e-35 3.3925000025192282e-05 7.8616666793823251 1.8355000065639618e-05 -2.6783334016799922 11.026666641235353 -1.9999999999999998 5.5250000953674325 1.8949999809265139 11.961666584014894 36.549999237060554 37.090000152587898 -5.2933335304260245 0.26833334565162664
decision_type=2 8 8 8 10 10 8 2 10 10 10 10 8 10 2 2 2 2 8 2 8 10 8 10 10 8 2 2 10 8
left_child=5 9 3 11 6 8 -4 12 19 -2 20 24 -8 17 16 -16 25 -14 -5 -1 -10 -18 -22 -7 -3 -15 -19 28 -24 -29
right_child=1 2 4 18 -6 23 7 -9 10 -11 -12 -13 13 14 15 -17 21 26 -20 -21 22 -23 27 -25 -26 -27 -28 29 -30 -31
leaf_value=-0.16705696618494889 -0.36991090387105946 -0.31761816789137765 0.070322934195994294 -0.12143984068185093 0.47772766889310359 -0.20082060083224584 -0.2363597620589038 -0.13174192843991414 -0.42429808589114909 -0.10912993392968025 -0.09344479085744492 0.086626408309675759 0.33306267454369082 0.47674852266432127 0.27274299763864085 -0.53030826846758528 -0.42699255261570218 -0.1521043606599172 0.25468062226673671 -0.49614118837050836 -0.40298928612450696 0.10856347336736789 0.013220808970240448 0.078118307772798073 -0.10149418078804676 0.24500471232910837 0.21597222935209293 -0.27806575453478444 -0.35011871561138097 -0.013797003894886179
leaf_weight=48 170 146 297 40 408 378 24 57 501 298 112 120 1510 94 31 42 20 30 355 549 299 83 39 66 253 541 262 121 345 106
leaf_count=48 170 146 297 40 408 378 24 57 501 298 112 120 1510 94 31 42 20 30 355 549 299 83 39 66 253 541 262 121 345 106
internal_value=0 0.177802 0.219216 0.0261476 0.271132 -0.331541 0.242951 0.261982 -0.367602 -0.203858 -0.327588 -0.118796 0.270492 0.275148 0.202238 -0.189286 0.240966 0.307961 0.216592 -0.469682 -0.346174 0.00457201 -0.303162 -0.159357 -0.180577 0.27931 0.178156 -0.254311 -0.313217 -0.154663
internal_weight=0 4781 4313 914 3399 2564 2991 2694 2120 468 1523 519 2637 2613 811 73 738 1802 395 597 1411 103 910 444 399 635 292 611 384 227
internal_count=7345 4781 4313 914 3399 2564 2991 2694 2120 468 1523 519 2637 2613 811 73 738 1802 395 597 1411 103 910 444 399 635 292 611 384 227
shrinkage=0.1


Tree=10
num_leaves=31
num_cat=0
split_feature=27 28 62 18 28 58 28 77 23 64 57 73 65 28 72 26 28 64 77 77 57 24 56 24 59 0 28 26 64 58
split_gain=35362.4 6410.1 3260.99 2437.23 1732.16 1652.03 1037.87 796.856 1065.24 971.222 1284.07 1026.34 991.834 740.28 663.53 656.522 624.218 605.95 638.641 534.096 539.339 515.219 494.903 650.952 450.454 440.251 414.668 405.433 368.801 351.7
threshold=1.0000000180025095e-35 5.8916666507720956 7.9433333873748788 3.3915001040440991e-05 14.699999809265138 8.3200001716613787 -1.5383332967758176 5.5000000000000009 4.7315001211245551e-05 1.0000000180025095e-35 0.10500000044703485 1.0000000180025095e-35 -1.5883333683013914 10.344999790191652 1.0000000180025095e-35 3.1764999221195474e-05 0.085000000894069686 6.928333282470704 5.5000000000000009 5.5000000000000009 -5.6983332633972159 2.5395000193384479e-05 10.918333530426027 3.7960000554448932e-05 13.75666666030884 44.680000305175788 18.446665763854984 3.1899999157758436e-05 -2.8349999189376827 12.003333568573
decision_type=2 8 8 2 10 8 10 2 2 10 10 2 10 10 2 2 10 8 2 2 10 2 8 2 10 2 10 2 10 8
left_child=1 16 5 6 7 19 17 8 -4 21 -11 12 -12 15 -10 22 -1 18 -2 -3 -21 -9 23 -14 -5 -13 -6 -7 -22 -20
right_child=3 2 4 24 26 27 -8 9 14 10 11 25 13 -15 -16 -17 -18 -19 29 20 28 -23 -24 -25 -26 -27 -28 -29 -30 -31
leaf_value=-0.32351968714559631 -0.30711104155546687 -0.030730590827388927 0.21423760710190939 -0.088614028570009398 0.32992957845104465 0.15043756328823588 -0.1710915935905149 0.25112666521398797 0.3425934385044726 0.37227278191950069 0.39117720985936155 0.37156305838104908 -0.10620243587979564 0.19858834995293473 0.68816668085149812 0.36123875954116769 -0.087244137906911115 -0.15465884804385749 -0.4461701538548587 0.18314024881743218 -0.093695730681336201 0.6032490561085363 -0.008111488057652062 -0.58478221145148079 0.26732142887543886 -0.026735075333100912 0.49467308177504432 0.56550828493558447 -0.44390685912221672 -0.24757077245399206
leaf_weight=201 815 229 1052 320 528 248 353 126 223 179 74 151 135 166 74 39 252 137 898 23 43 62 467 36 40 34 215 26 100 99
leaf_count=201 815 229 1052 320 528 248 353 126 223 179 74 151 135 166 74 39 252 137 898 23 43 62 467 36 40 34 215 26 100 99
internal_value=0 0.165431 0.203718 -0.291027 0.241774 0.00114656 -0.328866 0.205962 0.261453 0.155004 0.123854 0.0835032 0.0401565 0.00934333 0.428696 -0.0370594 -0.192082 -0.357442 -0.372774 -0.129733 -0.266309 0.367252 -0.0614068 -0.206956 -0.0490656 0.298362 0.377601 0.189824 -0.338599 -0.42645
internal_weight=0 4683 4230 2662 3561 669 2302 2818 1349 1469 1281 1102 917 843 297 677 453 1949 1812 395 166 188 638 171 360 185 743 274 143 997
internal_count=7345 4683 4230 2662 3561 669 2302 2818 1349 1469 1281 1102 917 843 297 677 453 1949 1812 395 166 188 638 171 360 185 743 274 143 997
shrinkage=0.1


Tree=11
num_leaves=31
num_cat=0
split_feature=55 62 28 0 28 59 60 55 58 24 62 63 64 28 77 65 26 57 64 72 62 77 0 0 59 62 85 57 57 26
split_gain=28656.4 4487.83 2898.24 2623.2 1382.27 1162.33 762.127 889.859 735.603 705.188 674.828 670.009 654.154 578.951 557.052 496.631 480.345 465.078 461.867 457.224 920.519 437.277 425.296 408.976 382.052 361.899 323.131 286.361 282.069 269.945
threshold=5.7616667747497567 3.308333277702332 10.879999637603762 37.090000152587898 17.32833290100098 -0.16833333671092984 14.594999790191652 12.514999866485597 -1.2866666316986082 1.8394999642623592e-05 12.669999599456789 8.1700000762939471 17.296666145324711 3.8249999284744267 5.5000000000000009 19.921667098999027 3.0825000067125081e-05 16.843333244323734 8.2183332443237322 1.0000000180025095e-35 14.251666545867922 5.5000000000000009 57.505001068115241 52.959999084472663 7.2349998950958261 4.9166665077209482 1.0000000180025095e-35 11.511666774749758 7.4649999141693124 3.1899999157758436e-05
decision_type=8 8 8 2 10 10 2 8 8 2 8 10 10 10 2 10 2 8 8 2 10 2 2 2 8 10 2 8 10 2
left_child=3 8 13 9 6 -5 7 12 -2 -1 21 29 17 26 -11 23 -14 24 -16 28 -21 22 25 -9 -4 -7 -3 -23 -13 -8
right_child=1 2 4 5 -6 10 11 15 -10 14 -12 19 16 -15 18 -17 -18 -19 -20 20 -22 27 -24 -25 -26 -27 -28 -29 -30 -31
leaf_value=-0.12508452637281656 -0.3947943385747763 -0.26003818510357163 -0.084700957886756412 -0.23782501907389025 0.41268063923189652 -0.14713999498068639 0.38031204461619472 0.23810721564937479 -0.070788460640285752 -0.27721524976197504 0.18486478705028142 0.3628218499299522 0.035985244717448954 0.045993989314635046 -0.42524717135057932 -0.15020444658067492 -0.5119343232130632 0.34061876173796402 -0.19114287100577107 0.08062490832222545 0.66520275959601771 -0.29975772365146586 0.39132727669043976 -0.13049543112997086 0.1186010935421636 0.031039486965576631 0.094608854118621716 0.035773602826520805 0.19119900051625513 0.73459723691145584
leaf_weight=174 130 116 126 552 362 230 207 1038 152 776 108 107 32 449 690 36 32 70 96 46 65 124 22 31 347 226 33 32 912 24
leaf_count=174 130 116 126 552 362 230 207 1038 152 776 108 107 32 449 690 36 32 70 96 46 65 124 22 31 347 226 33 32 912 24
internal_value=0 0.165518 0.192486 -0.235713 0.227856 -0.127942 0.206084 0.161681 -0.220153 -0.316045 -0.0461966 0.261938 0.0644073 -0.0106874 -0.337317 0.215115 -0.237975 0.100047 -0.396654 0.230214 0.422945 -0.0855572 -0.0381131 0.227418 0.0644445 -0.0588317 -0.181492 -0.230931 0.20922 0.417121
internal_weight=0 4315 4033 3030 3435 1294 3073 1712 282 1736 742 1361 607 598 1562 1105 64 543 786 1130 111 634 478 1069 473 456 149 156 1019 231
internal_count=7345 4315 4033 3030 3435 1294 3073 1712 282 1736 742 1361 607 598 1562 1105 64 543 786 1130 111 634 478 1069 473 456 149 156 1019 231
shrinkage=0.1


Tree=12
num_leaves=31
num_cat=0
split_feature=60 55 28 26 28 56 28 60 77 28 59 28 65 65 0 26 70 55 72 60 28 62 57 67 55 61 56 58 0 0
split_gain=23383.9 4796.27 2383.18 1565.4 1122.47 734.458 646.282 608.595 543.701 511.493 485.186 472.805 448.801 420.103 405.093 390.517 377.389 373.353 398.629 487.919 353.836 352.058 339.368 322.726 335.707 322.383 374.963 301.394 380.026 289.879
threshold=4.118333339691163 3.7333333492279057 10.879999637603762 2.6404999516671527e-05 17.433333396911625 10.421666622161867 11.493333339691164 10.326666831970217 5.5000000000000009 0.84999999403953563 -4.8066666126251212 1.291666626930237 19.921667098999027 5.0933332443237314 55.715000152587898 3.1899999157758436e-05 1.0000000180025095e-35 17.748333930969242 1.0000000180025095e-35 17.281666755676273 -1.9999999999999998 18.108333587646488 1.0616666674613955 -4.2933332920074454 -5.8250000476837149 1.1499999761581423 11.431666851043703 14.355000019073488 40.18499946594239 49.685001373291023
decision_type=2 8 8 2 10 8 10 2 2 10 8 8 10 8 2 2 2 8 2 2 10 10 10 10 10 10 8 10 2 2
left_child=3 8 9 10 5 7 11 14 22 -3 -1 -5 15 -10 -4 17 -14 18 21 -20 -12 29 -2 -13 -25 -26 -27 28 -23 -7
right_child=1 2 4 6 -6 12 -8 -9 13 -11 20 23 16 -15 -16 -17 -18 -19 19 -21 -22 27 -24 24 25 26 -28 -29 -30 -31
leaf_value=-0.41532049274136285 -0.20377928632010214 -0.23528575764558768 0.020340600370953074 -0.30741054843076404 0.37581964785480776 0.20773741573891555 0.27654718418673768 0.16368196011270641 -0.46759608417749404 0.029525120224423763 -0.28103128124599214 -0.40232937969267368 0.11419034381626084 -0.14922218039932358 -0.38882959043538134 0.45042652920500875 -0.36893255927345975 0.28920745764960881 0.24191872525785196 0.62430040836334233 -0.15795347631185336 -0.2544543090012838 0.00055862403945019926 -0.4262865731349359 0.050631193205839101 -0.16379456170420315 0.10972559746988425 0.15006664504349654 0.20647213436939099 0.026073254217442717
leaf_weight=232 136 84 233 126 346 1165 41 547 80 554 1462 32 61 86 27 73 22 520 149 43 278 53 202 26 179 281 61 124 27 95
leaf_count=232 136 84 233 126 346 1165 41 547 80 554 1462 32 61 86 27 73 22 520 149 43 278 53 202 26 179 281 61 124 27 95
internal_value=0 0.136753 0.17235 -0.232802 0.20488 0.186038 -0.109415 0.10381 -0.154448 -0.00534026 -0.279479 -0.131861 0.214493 -0.302655 -0.0221502 0.22292 -0.0138663 0.215288 0.192077 0.327556 -0.261367 0.174309 -0.0816602 -0.0936581 -0.0756005 -0.0580999 -0.115009 0.0524359 -0.0988916 0.194041
internal_weight=0 4627 4123 2718 3485 3139 746 807 504 638 1972 705 2332 166 260 2249 83 2176 1656 192 1740 1464 338 579 547 521 342 204 80 1260
internal_count=7345 4627 4123 2718 3485 3139 746 807 504 638 1972 705 2332 166 260 2249 83 2176 1656 192 1740 1464 338 579 547 521 342 204 80 1260
shrinkage=0.1


Tree=13
num_leaves=31
num_cat=0
split_feature=27 28 62 55 24 28 28 65 70 77 71 28 55 59 22 24 28 56 55 19 65 59 67 63 63 56 72 61 74 72
split_gain=19178.2 3516.2 1836.28 1441.42 1307.49 806.767 517.094 514.62 666.563 763.501 624.061 427.01 405.383 383.791 363.71 507.368 348.047 345.406 339.281 327.978 323.584 294.097 289.26 289.042 259.046 290.303 264.059 531.669 272.415 237.865
threshold=1.0000000180025095e-35 5.5250000953674325 10.081666469573976 3.4683333635330205 2.500499977031723e-05 17.623333930969242 -1.9999999999999998 15.075000286102297 1.0000000180025095e-35 5.5000000000000009 1.0000000180025095e-35 13.093333244323732 -0.24999999254941938 13.443333148956301 2.8544999622681647e-05 2.4074999600998129e-05 -2.6983333826065059 10.918333530426027 -4.5650000572204581 3.4894999771495356e-05 4.9983332157135019 11.961666584014894 -3.2316666841506954 17.366666793823246 8.5616669654846209 12.775000095367433 1.0000000180025095e-35 16.003333091735843 1.0000000180025095e-35 1.0000000180025095e-35
decision_type=2 8 8 10 2 10 10 10 2 2 2 8 8 10 2 2 10 10 10 2 10 8 10 8 8 8 2 10 2 2
left_child=1 16 4 6 12 7 18 11 10 -10 21 -4 -3 22 24 20 -1 -12 -2 -20 -16 -9 -5 -6 -13 29 28 -28 -27 -26
right_child=3 2 5 13 23 -7 -8 8 9 -11 17 14 -14 -15 15 -17 -18 -19 19 -21 -22 -23 -24 -25 25 26 27 -29 -30 -31
leaf_value=-0.30565430449509839 -0.33232756008337483 -0.24935033462866391 0.09608576763235474 -0.34088365184633357 0.14142806805711369 0.34428941660657014 -0.14009262932597175 0.33438856640849451 0.18656248445472412 -0.4746227967739105 -0.31738027670553759 0.36198930879534219 -0.027530446885032256 0.22667886789726174 0.11002371680168879 0.17501128400109306 -0.098672400481362471 0.033844937195868362 -0.25222991797506866 -0.035356419508320254 -0.42244366976618769 0.14846411786519362 -0.050143687270830795 0.41395024792714558 0.17204429196588922 0.21533028319671754 0.27718319838790045 0.81150411617755891 0.40419708264285126 -0.16755624040961267
leaf_weight=109 572 99 343 38 337 290 379 99 31 40 35 161 491 46 21 332 319 140 1209 74 25 605 344 44 330 625 73 25 87 22
leaf_count=109 572 99 343 38 337 290 379 99 31 40 35 161 491 46 21 332 319 140 1209 74 25 605 344 44 330 625 73 25 87 22
internal_value=0 0.121829 0.149311 -0.214322 0.0284984 0.185032 -0.24653 0.169606 0.108793 -0.185936 0.1326 0.197871 -0.0647511 -0.0462051 0.218395 0.131887 -0.151385 -0.0364001 -0.268277 -0.239721 -0.179361 0.17461 -0.0790655 0.1729 0.243112 0.226641 0.259591 0.41349 0.238408 0.150819
internal_weight=0 4683 4255 2662 971 3284 2234 2994 950 71 879 2044 590 428 1701 378 428 175 1855 1283 46 704 382 381 1323 1162 810 98 712 352
internal_count=7345 4683 4255 2662 971 3284 2234 2994 950 71 879 2044 590 428 1701 378 428 175 1855 1283 46 704 382 381 1323 1162 810 98 712 352
shrinkage=0.1


Tree=14
num_leaves=31
num_cat=0
split_feature=27 28 62 55 28 58 77 23 57 63 65 73 28 26 28 22 24 56 72 85 28 77 57 59 66 70 24 67 64 55
split_gain=15543.9 2865.57 1534.85 1162.31 789.17 784.883 485.391 717.054 636.09 942.437 782.143 447.195 476.588 447.988 419.765 371.444 345.849 465.669 340.433 326.524 321.424 313.892 326.752 311.169 308.255 329.971 291.536 281.303 267.318 264.094
threshold=1.480000037190621e-06 5.5250000953674325 8.0116667747497576 3.4683333635330205 14.351666927337648 8.0183334350585955 5.5000000000000009 4.7315001211245551e-05 0.10500000044703485 5.2083332538604745 2.0883332490921025 1.0000000180025095e-35 6.9683332443237314 3.1764999221195474e-05 -1.9999999999999998 2.9925000490038659e-05 2.021500040427782e-05 10.918333530426027 1.0000000180025095e-35 1.0000000180025095e-35 23.060000419616703 5.5000000000000009 -5.4933331012725821 13.443333148956301 16.208333015441898 1.0000000180025095e-35 2.5205000383721202e-05 12.894999980926515 7.8883333206176767 -4.5650000572204581
decision_type=2 8 8 10 10 8 2 2 10 10 10 2 10 2 10 2 2 10 2 2 10 2 10 10 8 2 2 10 10 10
left_child=1 19 5 14 6 21 7 27 28 26 -11 12 13 16 29 -13 -12 -18 -9 -1 -6 -3 -23 -5 25 -19 -10 -4 -8 -2
right_child=3 2 4 23 20 -7 8 18 9 10 11 15 -14 -15 -16 -17 17 24 -20 -21 -22 22 -24 -25 -26 -27 -28 -29 -30 -31
leaf_value=-0.17338480406893733 -0.29909480377588865 -0.013998270749830264 0.090954183414578449 -0.071688652382562723 0.23662054832141119 0.12469663672413477 0.020921141489901963 0.25644182047439279 0.12013186244931939 0.26481172580522699 0.21245740585762896 0.30693935059286931 0.08525313348595287 0.25493139956930749 -0.12620504145467934 -0.048877963974424038 -0.28488617828188018 -0.071253970770101829 0.50856186050764274 0.066732457847292745 0.60816088120142631 0.12420111043445235 -0.24812516990655273 0.20401098073824595 0.05111053944466977 -0.36678595390855051 0.37521794245192974 0.19653207068395939 0.33287722655422208 -0.21732243599719003
leaf_weight=366 572 242 545 372 781 296 34 218 73 130 33 81 271 38 372 46 129 165 71 67 24 28 149 46 142 49 116 470 143 1276
leaf_count=366 572 242 545 372 781 296 34 218 73 130 33 81 271 38 372 46 129 165 71 67 24 28 149 46 142 49 116 470 143 1276
internal_value=0 0.108905 0.13374 -0.194321 0.1606 4.14038e-05 0.135141 0.179411 0.0953289 0.0706317 0.0347041 0.00334775 -0.0234824 -0.0764812 -0.223123 0.178061 -0.100793 -0.122107 0.318381 -0.13623 0.247698 -0.0880205 -0.189226 -0.0413485 -0.0631228 -0.138923 0.276693 0.139842 0.272953 -0.242633
internal_weight=0 4707 4274 2638 3559 715 2754 1304 1450 1273 1084 954 827 556 2220 127 518 485 289 433 805 419 177 418 356 214 189 1015 177 1848
internal_count=7345 4707 4274 2638 3559 715 2754 1304 1450 1273 1084 954 827 556 2220 127 518 485 289 433 805 419 177 418 356 214 189 1015 177 1848
shrinkage=0.1


Tree=15
num_leaves=31
num_cat=0
split_feature=60 55 28 28 28 60 55 26 63 63 28 28 66 67 77 0 61 67 0 34 88 60 67 62 22 24 26 57 77 55
split_gain=12740.4 2606.45 1403.23 922.072 665.839 475.828 520.533 462.518 430.92 387.966 349.368 326.533 316.514 314.11 293.916 290.737 292.932 285.976 275.395 272.363 254.021 253.319 270.521 233.486 230.822 230.709 219.943 213.124 375.298 207.933
threshold=4.118333339691163 1.8949999809265139 10.879999637603762 3.8249999284744267 17.623333930969242 14.594999790191652 12.606666564941408 3.1325000236392959e-05 9.740000247955324 8.1700000762939471 -4.6883332729339591 3.6350001096725468 11.341666698455812 17.403332710266117 5.5000000000000009 55.034999847412116 13.408333301544191 16.465000152587894 38.165000915527351 1.7500000000000002 1.0000000180025095e-35 -4.5333335399627677 9.041666507720949 13.201666831970217 2.7195000257052019e-05 3.9705000745016157e-05 2.576499991846504e-05 10.736666679382326 5.5000000000000009 17.408332824707035
decision_type=2 8 8 10 10 2 8 2 10 10 8 10 10 8 2 2 8 8 2 10 2 2 8 10 2 2 2 8 2 10
left_child=3 12 11 8 5 6 7 27 10 -7 -1 19 14 -9 -2 16 21 20 23 -3 -8 -12 -23 -11 -19 -20 -18 28 -4 -26
right_child=1 2 4 -5 -6 9 17 13 -10 18 15 -13 -14 -15 -16 -17 26 24 25 -21 -22 22 -24 -25 29 -27 -28 -29 -30 -31
leaf_value=-0.30341373035201324 -0.11742103558805105 0.014076210647420604 0.072760689048952998 0.02110543542229755 0.28630213373600505 0.29508546464901153 0.15915681914846169 -0.38406700193881993 0.066706145914577061 0.22018168923045908 -0.29299001752793252 0.033203586835507483 0.07010014021976127 0.099324578642845163 -0.31680101156234741 0.18751594055266607 -0.13092920035123826 0.20395378880905657 0.14006237505935135 -0.23546038650698506 0.45993943029436574 -0.17010033588469653 -0.32653916321568571 0.072309575763013625 -0.14100367434788494 0.26856526440455458 0.30057453456379118 0.12858724171631433 -0.14143093400173359 0.13166478347293167
leaf_weight=270 198 79 311 227 319 239 883 41 64 140 222 519 54 20 118 21 27 53 275 98 29 1748 118 450 80 284 21 283 111 43
leaf_count=270 198 79 311 227 319 239 883 41 64 140 222 519 54 20 118 21 27 53 275 98 29 1748 118 450 80 284 21 283 111 43
internal_value=0 0.100942 0.123069 -0.171839 0.148451 0.134887 0.101739 0.0385897 -0.189421 0.179164 -0.196175 -0.0067966 -0.153639 -0.225578 -0.191873 -0.182752 -0.186392 0.146199 0.155052 -0.124085 0.168721 -0.192007 -0.179993 0.107398 0.0294934 0.205348 0.0578537 0.0614467 0.0164212 -0.0456806
internal_weight=0 4627 4257 2718 3561 3242 1854 766 2491 1388 2427 696 370 61 316 2157 2136 1088 1149 177 912 2088 1866 590 176 559 48 705 422 123
internal_count=7345 4627 4257 2718 3561 3242 1854 766 2491 1388 2427 696 370 61 316 2157 2136 1088 1149 177 912 2088 1866 590 176 559 48 705 422 123
shrinkage=0.1


Tree=16
num_leaves=31
num_cat=0
split_feature=61 26 28 28 28 60 63 55 20 28 67 26 57 64 18 64 28 61 59 23 0 24 20 0 52 72 26 61 0 67
split_gain=10355.5 1643.33 1550.34 686.935 594.357 516.688 541.294 448.413 399.068 379.83 368.495 360.064 366.438 244.174 254.931 241.868 236.62 226.699 334.627 229.86 225.453 296.77 251.013 217.892 217.842 214.48 212.924 263.101 250.679 331.375
threshold=6.2149999141693124 2.835499981301837e-05 10.344999790191652 14.351666927337648 2.4366667270660405 14.594999790191652 8.1700000762939471 13.184999942779543 3.522999941196759e-05 1.0000000180025095e-35 -3.6966667175292964 3.1325000236392959e-05 2.7366666793823247 13.413333415985109 3.4265000067534863e-05 15.491666316986086 23.060000419616703 10.000000000000002 4.4083333015441903 1.6775000403868038e-05 38.165000915527351 3.9705000745016157e-05 1.8525000086810909e-05 44.194999694824226 5.741666555404664 1.0000000180025095e-35 3.0365000384335875e-05 12.025000095367433 42.385000228881843 5.993333339691163
decision_type=8 2 8 10 10 2 10 8 2 10 10 2 8 8 2 10 10 8 10 2 2 2 2 2 8 2 2 10 2 8
left_child=1 4 9 5 10 7 -7 11 -3 -2 -1 12 23 14 -12 -13 -5 -14 -19 -20 -8 22 -22 -4 -11 -23 -9 -28 29 -29
right_child=2 8 3 16 -6 6 20 26 -10 24 13 15 17 -15 -16 -17 -18 18 19 -21 21 25 -24 -25 -26 -27 27 28 -30 -31
leaf_value=-0.25091007356493689 -0.1891571455731002 0.095821921991383924 -0.037350318300498959 0.19992768697240629 -0.017383742992720819 0.32354862689859037 0.082426644885746816 0.064753557038065263 -0.095054139720881919 -0.08580052895519498 -0.17847367861725785 0.055315550416707993 -0.016612335505350583 0.000572206929660915 -0.006459131363554152 -0.33778378758165573 0.51871457546949384 0.45044702931686686 -0.17034891308285297 0.10883647500230198 -0.2364663188159466 0.2071863266005198 0.13334839701372711 -0.32881541792835511 0.04991876768682129 0.43875963940935314 0.30420021169109768 0.49035050528390073 -0.067837140265211412 0.12673905189246501
leaf_weight=609 136 322 96 780 236 165 517 348 166 189 1619 24 212 89 91 45 24 27 32 376 20 163 223 35 316 53 109 28 56 239
leaf_count=609 136 322 96 780 236 165 517 348 166 189 1619 24 212 89 91 45 24 27 32 376 20 163 223 35 316 53 109 28 56 239
internal_value=0 -0.137713 0.102378 0.128075 -0.168832 0.104441 0.156033 0.0682596 0.0308928 -0.0408227 -0.183675 0.0178804 0.0372975 -0.160915 -0.16932 -0.201054 0.209444 0.0681787 0.109502 0.0869396 0.127713 0.178721 0.102911 -0.115223 -0.000875187 0.264008 0.122966 0.16986 0.124525 0.164871
internal_weight=0 3132 4213 3572 2644 2768 1141 1627 488 641 2408 847 778 1799 1710 69 804 647 435 408 976 459 243 131 505 216 780 432 323 267
internal_count=7345 3132 4213 3572 2644 2768 1141 1627 488 641 2408 847 778 1799 1710 69 804 647 435 408 976 459 243 131 505 216 780 432 323 267
shrinkage=0.1


Tree=17
num_leaves=31
num_cat=0
split_feature=27 28 62 67 24 28 67 65 70 77 71 55 22 26 32 63 85 40 56 24 58 72 61 74 65 60 61 63 66 63
split_gain=8442.71 1565.93 882.897 670.599 627.722 381.98 349.379 306.576 411.185 457.982 339.51 299.426 258.685 325.1 244.148 235.234 231.42 230.589 228.047 226.99 228.909 226.672 267.298 232.271 215.169 255.622 195.386 221.768 190.459 182.095
threshold=1.480000037190621e-06 4.9549999237060556 10.081666469573976 5.993333339691163 2.5289999939559497e-05 17.833333969116214 5.8766667842864999 15.075000286102297 1.0000000180025095e-35 5.5000000000000009 1.0000000180025095e-35 3.4683333635330205 2.8544999622681647e-05 3.029500021511922e-05 6.5183334350585946 9.6050000190734881 1.0000000180025095e-35 10.871666431427004 12.775000095367433 1.8355000065639618e-05 3.6916667222976689 1.0000000180025095e-35 16.003333091735843 1.0000000180025095e-35 15.011666774749758 10.636666774749758 -1.8133333325386045 12.085000038146974 -2.6983333826065059 17.241666793823246
decision_type=2 8 8 10 2 10 8 10 2 2 2 10 2 2 10 8 2 8 8 2 8 2 10 2 8 2 10 10 10 8
left_child=1 16 4 6 17 7 11 12 10 -10 -9 19 14 -14 15 -4 -1 -3 -17 -2 -21 23 -23 24 25 -20 -5 -28 -19 -6
right_child=3 2 5 26 29 -7 -8 8 9 -11 -12 -13 13 -15 -16 18 -18 28 21 20 -22 22 -24 -25 -26 -27 27 -29 -30 -31
leaf_value=-0.14054417027395405 0.013850498316543445 0.12840175769575266 0.29882306577946177 -0.28393028147518634 0.094103816467463519 0.23706788131543075 -0.3240975074225762 0.11555095963483104 0.12303309941123571 -0.38905238926410679 -0.038148096984045372 -0.046675418161530327 -0.0095041567775150469 0.15375859234792491 0.10202855825284658 0.086577223194412953 0.069484992681311517 -0.22769113774411381 0.28474232895112234 -0.18403641760757219 -0.089359334545419722 0.22495888728881255 0.62820335364341739 0.35639145929486521 0.2885582565599018 0.074439425516949889 0.090683203690892292 -0.16450768439542682 -0.04455675550400176 0.31103216396136718
leaf_weight=341 70 69 151 20 321 269 122 713 31 40 180 248 248 240 574 266 62 64 72 1654 302 48 25 62 90 293 180 42 504 44
leaf_count=341 70 69 151 20 321 269 122 713 31 40 180 248 248 240 574 266 62 64 72 1654 302 48 25 62 90 293 180 42 504 44
internal_value=0 0.0802621 0.0979115 -0.143212 0.0156922 0.122861 -0.159236 0.112732 0.0661547 -0.165466 0.0845702 -0.150391 0.134434 0.070789 0.154078 0.183747 -0.108232 -0.0442215 0.163448 -0.163086 -0.169419 0.198105 0.363056 0.174814 0.150071 0.115924 0.0154341 0.0424038 -0.0651916 0.120254
internal_weight=0 4707 4304 2638 1002 3302 2396 3033 964 71 893 2274 2069 488 1581 1007 403 637 856 2026 1956 590 73 517 455 365 242 222 568 365
internal_count=7345 4707 4304 2638 1002 3302 2396 3033 964 71 893 2274 2069 488 1581 1007 403 637 856 2026 1956 590 73 517 455 365 242 222 568 365
shrinkage=0.1


Tree=18
num_leaves=31
num_cat=0
split_feature=60 55 28 28 28 61 66 57 56 85 28 64 50 60 59 18 22 26 0 65 77 66 59 67 23 61 61 65 63 58
split_gain=6899.32 1462.88 777.123 521.725 372.948 300.184 289.662 296.707 277.261 255.899 255.786 241.154 236.008 233.655 223.488 220.228 245.64 209.113 201.902 465.598 363.913 311.464 305.692 237.056 200.046 201.661 187.498 185.753 182.368 294.533
threshold=4.118333339691163 1.8949999809265139 10.879999637603762 4.2583334445953378 17.32833290100098 -3.3683332204818721 -2.096666574478149 16.281666755676273 10.421666622161867 1.0000000180025095e-35 4.7833333015441903 -0.74166667461395253 8.7550001144409197 10.326666831970217 15.151666641235353 3.1699999453849166e-05 2.8274999749555722e-05 3.1899999157758436e-05 38.165000915527351 10.388333320617678 5.5000000000000009 15.626666545867922 14.920000076293947 5.8766667842864999 4.6440000005532063e-05 6.7533333301544198 -2.8583332300186153 2.5516666173934941 0.97333335876464855 -1.0000000180025095e-35
decision_type=2 8 8 10 10 8 10 8 8 2 10 8 8 2 8 2 2 2 2 10 2 8 10 10 2 10 10 8 10 8
left_child=3 15 9 5 8 11 26 12 13 10 -3 -1 -8 14 27 16 -2 18 19 -10 24 22 -22 -20 -21 -26 -7 -4 -14 -30
right_child=1 2 4 -5 -6 6 7 -9 17 -11 -12 -13 28 -15 -16 -17 -18 -19 23 20 21 -23 -24 -25 25 -27 -28 -29 29 -31
leaf_value=-0.23832477493689652 -0.12821630745640267 -0.12749785380387629 0.17979397225379945 0.023413155495110794 0.20639776143071589 -0.07323196444689864 -0.18772039526480844 0.13256587424625954 0.19613388808862287 0.14861462656208266 0.013730751023793251 -0.11592622395455839 -0.011417413334577131 0.089507319586917614 -0.33342627854574297 -0.019790911790591462 -0.39623820767516182 0.28351737279189776 0.041097458265612487 0.067534429066388721 -0.32771997406590181 0.039383822796068023 -0.01718759270328464 0.15657275370094753 0.044968978802745162 0.40639715339792404 -0.19138064657943563 -0.031928152073567258 -0.19963479663117553 -0.036666808996077459
leaf_weight=452 184 185 50 214 359 174 220 60 245 93 418 250 312 561 21 144 42 73 213 356 61 175 66 1075 26 38 589 242 204 243
leaf_count=452 184 185 50 214 359 174 220 60 245 93 418 250 312 561 21 144 42 73 213 356 61 175 66 1075 26 38 589 242 204 243
internal_value=0 0.0742818 0.0908587 -0.126454 0.109748 -0.139262 -0.117651 -0.0832938 0.0989117 -0.00578518 -0.0295981 -0.194736 -0.0965232 0.0508864 -0.018335 -0.116442 -0.178026 0.116942 0.111549 0.0770157 0.0365948 -0.0471296 -0.166341 0.137476 0.0967965 0.259567 -0.164437 0.00432564 -0.0700893 -0.111041
internal_weight=0 4627 4257 2718 3561 2504 1802 1039 3202 696 603 702 979 874 313 370 226 2328 2255 967 722 302 127 1288 420 64 763 292 759 447
internal_count=7345 4627 4257 2718 3561 2504 1802 1039 3202 696 603 702 979 874 313 370 226 2328 2255 967 722 302 127 1288 420 64 763 292 759 447
shrinkage=0.1


Tree=19
num_leaves=31
num_cat=0
split_feature=60 55 28 55 0 28 67 57 66 77 65 28 60 63 85 28 59 67 59 66 63 0 24 65 19 0 62 73 55 72
split_gain=5590.46 1341.21 580.645 528.757 459.794 283.431 276.919 252.824 241.657 219.328 231.879 214.639 202.251 211.301 188.596 202.24 186.754 171.557 256.688 186.962 204.842 168.435 167.729 167.639 209.048 155.763 188.638 167.511 186.696 194.459
threshold=8.0116667747497576 3.4683333635330205 10.879999637603762 13.815000057220461 46.989999771118171 20.326666831970218 8.7600002288818377 -4.5966668128967276 15.166666507720949 5.5000000000000009 1.2649999856948855 4.3350000381469735 14.594999790191652 8.1700000762939471 1.0000000180025095e-35 3.8249999284744267 -5.2750000953674308 16.465000152587894 11.036666870117189 19.401666641235355 3.2050000429153447 48.460000991821296 4.5999999201740145e-05 9.0933332443237322 3.728000046976377e-05 38.165000915527351 13.699999809265138 1.0000000180025095e-35 4.928333282470704 1.0000000180025095e-35
decision_type=2 10 8 10 2 10 8 8 8 2 10 10 2 10 2 10 8 8 10 8 8 2 2 10 2 2 10 2 10 2
left_child=1 4 14 7 6 12 11 -3 -9 10 -6 16 17 -14 15 -2 -1 19 -19 20 -4 -20 -22 24 -18 26 -15 28 -27 -30
right_child=2 3 5 -5 9 -7 -8 8 -10 -11 -12 -13 13 25 -16 -17 23 18 21 -21 22 -23 -24 -25 -26 27 -28 -29 29 -31
leaf_value=-0.25598602217890448 -0.15437576282196319 -0.34711899434526766 -0.16383897957994659 0.14859165155751355 0.4205077523534948 0.28248059286486876 -0.26896648242661397 0.0021069333554725456 -0.17194235257131774 -0.11082436293363572 0.05073132269034112 0.013416999167888067 0.20092087928685795 0.15641182429157197 0.16272957431418555 0.0039402555688543041 -0.12651244630752673 -0.22208456986329775 0.080292424443308696 0.24084047410885492 0.093181480501627056 -0.17959957169047719 -0.090495498073645514 -0.3538767356425524 0.18338051878593187 -0.098215442895889293 0.034565538045717402 0.015473266606115633 0.14575492579110946 0.30217624140169586
leaf_weight=118 104 24 34 216 22 86 146 702 90 58 74 104 291 180 56 360 2066 44 178 75 1132 29 52 32 22 26 432 90 403 99
leaf_count=118 104 24 34 216 22 86 146 702 90 58 74 104 291 180 56 360 2066 44 178 75 1132 29 52 32 22 26 432 90 403 99
internal_value=0 -0.0872068 0.0872781 0.00946628 -0.124969 0.103434 -0.135347 -0.027361 -0.0176714 0.0427109 0.135472 -0.127018 0.0984105 0.124292 -0.0106226 -0.0315444 -0.133544 0.0729146 -0.00274126 0.0876011 0.0781651 0.0438824 0.0851146 -0.126728 -0.123247 0.106163 0.0704027 0.141576 0.16307 0.176603
internal_weight=0 3674 3671 1032 2642 3151 2488 816 792 154 96 2342 3065 1521 520 464 2238 1544 251 1293 1218 207 1184 2120 2088 1230 612 618 528 502
internal_count=7345 3674 3671 1032 2642 3151 2488 816 792 154 96 2342 3065 1521 520 464 2238 1544 251 1293 1218 207 1184 2120 2088 1230 612 618 528 502
shrinkage=0.1


Tree=20
num_leaves=31
num_cat=0
split_feature=61 28 26 28 28 0 60 20 21 24 77 56 18 20 65 63 52 67 56 70 67 67 64 19 64 72 26 60 22 61
split_gain=4591.52 722.115 721.893 334.441 302.506 280.698 325.361 291.917 254.372 248.275 216.297 457.292 306.201 214.362 207.963 246.531 207.526 207.239 200.927 240.627 198.625 192.106 246.312 183.414 182.738 180.745 177.543 168.41 159.508 158.722
threshold=6.2149999141693124 10.344999790191652 2.835499981301837e-05 14.351666927337648 2.4366667270660405 49.344999313354499 9.9650001525878924 3.3704998713801622e-05 3.5824999940814457e-05 4.610500036505983e-05 5.5000000000000009 15.373333454132082 3.3460000850027434e-05 3.6635001379181638e-05 13.658333301544191 16.6966667175293 5.0750000476837167 14.901666641235353 14.946666717529299 1.0000000180025095e-35 -3.6966667175292964 14.204999923706056 13.093333244323732 3.3995000194408938e-05 13.413333415985109 1.0000000180025095e-35 3.1899999157758436e-05 20.631667137146 2.424499962216942e-05 10.406666278839113
decision_type=8 8 2 10 10 2 2 2 2 2 2 8 2 2 10 8 8 8 10 2 10 10 10 2 8 2 2 2 2 8
left_child=2 16 4 5 20 7 23 8 9 14 -9 12 -12 -4 15 21 -2 -8 27 29 -1 -3 -23 -7 -22 26 -17 -16 -24 -20
right_child=1 3 13 -5 -6 6 17 10 -10 -11 11 -13 -14 -15 18 25 -18 -19 19 -21 24 22 28 -25 -26 -27 -28 -29 -30 -31
leaf_value=-0.17227661330153485 -0.10166121606395118 0.070070086244241922 0.055383489906887823 0.14248393204055068 -0.0042790507862218103 -0.2643437505435588 0.10769584625259383 0.049953052204452265 0.3715977372545185 -0.056516100908411998 -0.55104344515573411 0.2397573024291417 -0.1170641094653143 -0.10427072887067441 0.087992206051056107 0.15324331410993727 0.01534227793464508 -0.13643129023412864 0.20952532208439978 -0.24664818255011653 -0.11347509604469569 0.31556403310525988 -0.10998835748682419 0.02082385267404949 0.033497757339075715 0.43891096790321171 0.43094608348149521 0.30542738002381831 0.16745817138215724 0.0044334803293195535
leaf_weight=609 246 503 380 804 236 67 153 314 33 107 21 29 72 108 569 201 395 45 44 34 1710 84 30 34 89 32 26 38 67 265
leaf_count=609 246 503 380 804 236 67 153 314 33 107 21 29 72 108 569 201 395 45 44 34 1710 84 30 34 89 32 26 38 67 265
internal_value=0 0.0681706 -0.0916995 0.0857087 -0.112325 0.0692176 -0.0222908 0.0802994 0.0962231 0.0916794 0.00604975 -0.106947 -0.215059 0.0200502 0.100056 0.133324 -0.0295608 0.0522124 0.0670334 0.00585408 -0.122914 0.101861 0.190207 -0.168347 -0.106204 0.216416 0.185051 0.101604 0.08165 0.0336375
internal_weight=0 4213 3132 3572 2644 2768 299 2469 2033 2000 436 122 93 488 1893 943 641 198 950 343 2408 684 181 101 1799 259 227 607 97 309
internal_count=7345 4213 3132 3572 2644 2768 299 2469 2033 2000 436 122 93 488 1893 943 641 198 950 343 2408 684 181 101 1799 259 227 607 97 309
shrinkage=0.1


Tree=21
num_leaves=31
num_cat=0
split_feature=58 28 24 62 0 24 21 28 61 56 56 77 23 63 65 58 28 24 70 44 66 26 20 18 0 77 63 0 59 59
split_gain=3758.01 774.629 471.289 405.949 309.867 320.411 263.781 253.178 224.012 233.7 207.785 262.954 290.69 289.341 297.937 366.339 406.657 294.253 286.729 286.429 274.387 212.72 197.957 196.337 204.178 179.956 170.584 160.308 260.738 169.308
threshold=3.8766666650772099 4.9549999237060556 2.5925000045390337e-05 4.9166665077209482 37.090000152587898 1.8394999642623592e-05 2.7955000405199829e-05 19.439999580383304 -3.1550000905990596 8.6749997138977069 -4.9683332443237296 5.5000000000000009 4.4989999878453098e-05 4.8416666984558114 0.82499998807907116 14.289999961853029 5.0683333873748788 2.0354999833216428e-05 1.0000000180025095e-35 12.449999809265138 18.001666069030765 3.113499951723498e-05 1.650499962124741e-05 2.1935000404482711e-05 50.549999237060554 5.5000000000000009 -4.2983334064483634 39.18499946594239 -1.9950000047683714 0.14833333343267444
decision_type=8 8 2 8 2 2 2 10 8 10 10 2 2 10 10 8 10 2 2 8 8 2 2 2 2 2 10 2 10 10
left_child=2 -2 4 -3 5 -1 25 10 -6 27 -5 12 21 -13 -15 16 17 -16 -17 -14 -20 -12 -19 -21 -25 -7 -27 28 -10 -29
right_child=1 3 -4 7 8 6 -8 -9 9 -11 11 13 19 14 15 18 -18 22 20 23 -22 -23 -24 24 -26 26 -28 29 -30 -31
leaf_value=0.012668011618227188 -0.07643168670762765 -0.027113930272583815 0.10325096020603489 0.19386188222218637 -0.16894885769756396 -0.1024264141278779 -0.42871120655909184 0.21506912459352223 0.32347479434683923 -0.29619576829102112 0.080030337712141728 0.13340163695642895 0.061986569025226548 0.13452992279548198 0.12302223776156705 0.067505338531339346 0.045218041259493837 -0.44986588180065157 -0.30466097120282265 0.042884719285827419 0.064145525015498459 -0.089005133994822572 -0.15270408602594507 0.28748621557114856 -0.0035398297563747124 -0.092810959952011551 -0.2042486941578853 -0.098650246934795932 -0.0130931644382455 -0.00037762438778810324
leaf_weight=142 412 412 116 136 158 698 32 129 32 34 1292 275 185 200 36 673 193 25 43 52 38 79 217 225 27 188 510 330 82 374
leaf_count=142 412 412 116 136 158 698 32 129 32 34 1292 275 185 200 36 673 193 25 43 52 38 79 217 225 27 188 510 330 82 374
internal_value=0 0.0544708 -0.0939297 0.0671995 -0.102795 -0.130592 -0.144837 0.0773583 -0.059587 -0.0393062 0.0725518 0.0679175 0.0939001 0.0394895 0.0213661 0.00289033 -0.0663005 -0.143722 0.0461117 0.160095 -0.131641 0.0702901 -0.183403 0.219799 0.256305 -0.13833 -0.174234 -0.0286287 0.0813821 -0.0464429
internal_weight=0 4649 2696 4237 2580 1570 1428 3825 1010 852 3696 3560 1860 1700 1425 1225 471 278 754 489 81 1371 242 304 252 1396 698 818 114 704
internal_count=7345 4649 2696 4237 2580 1570 1428 3825 1010 852 3696 3560 1860 1700 1425 1225 471 278 754 489 81 1371 242 304 252 1396 698 818 114 704
shrinkage=0.1


Tree=22
num_leaves=31
num_cat=0
split_feature=60 55 28 28 59 60 55 64 66 72 45 26 0 26 58 77 67 67 56 64 21 28 57 77 57 64 26 31 74 66
split_gain=3070.4 702.025 355.265 280.266 209.792 205.058 231.741 248.353 204.68 226.196 198.151 180.311 171.091 159.581 204.867 158.089 152.934 151.284 156.808 221.067 190.959 176.517 147.166 204.117 141.084 230.189 154.951 147.61 137.214 136.755
threshold=4.118333339691163 1.8949999809265139 12.13000011444092 11.493333339691164 -4.694999933242797 14.454999923706056 12.606666564941408 17.011667251586918 11.744999885559084 1.0000000180025095e-35 8.0166668891906756 3.0825000067125081e-05 55.034999847412116 3.1899999157758436e-05 10.585000038146974 5.5000000000000009 9.7716670036315936 -4.9166665077209464 -2.783333301544189 2.8483332395553593 2.714499987632735e-05 4.2583334445953378 16.843333244323734 5.5000000000000009 -5.8250000476837149 -3.945000052452087 2.7690000024449549e-05 -4.3666665554046622 1.0000000180025095e-35 -1.9950000047683714
decision_type=2 8 8 10 8 2 8 10 8 2 10 2 2 2 10 2 8 10 10 10 2 8 8 2 10 10 2 10 2 10
left_child=3 15 10 4 -1 6 7 22 9 16 -3 -9 17 14 -10 -2 -7 -6 24 21 -21 -20 23 -4 25 -19 -26 -27 29 -23
right_child=1 2 5 -5 12 8 -8 11 13 -11 -12 -13 -14 -15 -16 -17 -18 18 19 20 -22 28 -24 -25 26 27 -28 -29 -30 -31
leaf_value=-0.17157414165044696 -0.032736632492767377 -0.024862172202210073 0.047326082492150486 0.17511511941145108 -0.16109554497948425 0.029140769549220513 0.081821812804412003 -0.016073425155716265 0.1470478990190332 0.3557339106041652 0.081274867632690775 -0.33508033296641182 0.14381450196618545 0.20212869206347417 0.04264096709425242 -0.16830978249268169 0.17105547024056345 -0.16730273029318565 -0.070788520368872079 -0.1352866994696581 -0.0044816892809467395 -0.014995379857425615 0.16735424208043911 -0.08765636358017985 -0.10789251793843938 0.19469731183791605 -0.30698442391869502 -0.091668365136892707 -0.11485044777393341 0.12132267865538598
leaf_weight=272 234 637 426 41 220 103 1095 37 248 52 243 34 34 97 776 136 289 54 254 369 160 127 68 152 840 54 41 27 50 175
leaf_count=272 234 637 426 41 220 103 1095 37 248 52 243 34 34 97 776 136 289 54 254 369 160 127 68 152 840 54 41 27 50 175
internal_value=0 0.0495538 0.0610373 -0.0843581 -0.0883321 0.0757842 0.0528834 0.00868868 0.102299 0.159763 0.00444612 -0.168837 -0.0789176 0.0795395 0.067927 -0.0825689 0.133767 -0.0821115 -0.0740332 -0.0484878 -0.0957237 -0.00725371 0.0282001 0.011829 -0.102571 -0.00737584 -0.117158 0.0992421 0.0385924 0.0639969
internal_weight=0 4627 4257 2718 2677 3377 1812 717 1565 444 880 71 2405 1121 1024 370 392 2371 2151 1135 529 606 646 578 1016 135 881 81 352 302
internal_count=7345 4627 4257 2718 2677 3377 1812 717 1565 444 880 71 2405 1121 1024 370 392 2371 2151 1135 529 606 646 578 1016 135 881 81 352 302
shrinkage=0.1


Tree=23
num_leaves=31
num_cat=0
split_feature=58 28 0 62 62 24 0 55 28 64 77 57 67 23 23 74 65 24 57 77 26 24 76 59 64 59 67 57 28 39
split_gain=2527.09 520.624 301.318 300.178 271.317 223.723 204.865 196.423 209.742 218.659 284 305.817 218.648 211.42 201.57 190.074 179.127 174.293 182.115 174.009 173.022 168.327 159.582 157.474 156.917 153.946 151.712 224.877 153.887 146.806
threshold=4.1749999523162851 3.8249999284744267 37.090000152587898 4.9166665077209482 12.669999599456789 1.8394999642623592e-05 39.18499946594239 17.748333930969242 13.765000343322756 0.84999999403953563 5.5000000000000009 16.108333587646488 13.568333148956301 1.6314999811584133e-05 4.4989999878453098e-05 1.0000000180025095e-35 3.2516666650772099 4.5325001337914734e-05 12.028333187103273 5.5000000000000009 2.7690000024449549e-05 2.5205000383721202e-05 1.0000000180025095e-35 15.696666717529299 -0.41833333671092982 15.063333511352541 16.538332939147953 13.326666831970217 19.618332862854007 15.301666736602785
decision_type=8 8 2 8 10 2 2 8 10 10 2 8 10 2 2 2 10 2 10 2 2 2 2 10 8 8 8 8 8 8
left_child=2 -2 5 -3 6 -1 -4 8 9 21 12 13 -11 -12 -14 16 -13 18 29 -7 24 22 -5 -16 -21 -20 28 -28 -9 -15
right_child=1 3 4 7 -6 19 -8 26 -10 10 11 15 14 17 23 -17 -18 -19 25 20 -22 -23 -24 -25 -26 -27 27 -29 -30 -31
leaf_value=0.016233923201593507 -0.074069185158997949 -0.024444432442230293 0.064211037484263739 -0.027768945468009495 0.16393199476879092 -0.08050918445379375 -0.065904054797521788 0.072728843714398972 0.10272613823811752 0.02656662031054588 0.15499084108370417 0.32630746439099312 0.076456380729269316 -0.0035739677447388521 0.32976361806576071 0.24717778523965761 0.017592888548283669 -0.25922461197126745 -0.063449793330569201 -0.170444396160462 -0.32868548838794232 0.28428988094131152 0.23546341432107465 0.10964222055501663 -0.070968623661959537 0.088808131287032674 -0.19632725539176088 0.10033509385807871 0.17040621326824057 -0.15285204757764861
leaf_weight=142 340 433 140 61 64 734 892 289 646 706 47 20 402 98 65 49 312 43 138 460 50 60 37 65 242 128 38 78 365 201
leaf_count=142 340 433 140 61 64 734 892 289 646 706 47 20 402 98 65 49 312 43 138 460 50 60 37 65 242 128 38 78 365 201
internal_value=0 0.045035 -0.0763975 0.0544944 -0.0358624 -0.103687 -0.0482528 0.063377 0.0520767 0.038623 0.0307192 -0.00791254 0.0630476 -0.04935 0.11146 0.063325 0.0361902 -0.0651461 -0.0503755 -0.115146 -0.148954 0.152377 0.0716147 0.219703 -0.136152 0.00981718 0.108549 0.0031526 0.127243 -0.103925
internal_weight=0 4621 2724 4281 1096 1628 1032 3848 3078 2432 2274 1036 1238 655 532 381 332 608 565 1486 752 158 98 130 702 266 770 116 654 299
internal_count=7345 4621 2724 4281 1096 1628 1032 3848 3078 2432 2274 1036 1238 655 532 381 332 608 565 1486 752 158 98 130 702 266 770 116 654 299
shrinkage=0.1


Tree=24
num_leaves=31
num_cat=0
split_feature=27 62 57 28 28 71 63 63 77 57 72 67 65 28 61 73 22 58 67 26 59 39 28 23 58 28 57 70 61 32
split_gain=2075.35 405.851 333.419 218.094 213.455 179.315 255.757 164.791 234.929 286.839 272.98 304.418 245.956 266.361 225.977 207.652 190.476 169.33 150.68 145.406 135.262 133.611 133.583 128.645 141.757 218.127 146.238 139.07 145.609 127.52
threshold=1.480000037190621e-06 10.081666469573976 13.929999828338625 4.5466666221618661 0.48666666448116308 1.0000000180025095e-35 3.3316665887832646 8.1700000762939471 5.5000000000000009 0.10500000044703485 1.0000000180025095e-35 12.894999980926515 4.7933332920074472 10.210000038146974 16.555000305175785 1.0000000180025095e-35 2.9925000490038659e-05 14.571666717529299 19.460000038146976 3.174500125169289e-05 -5.3699998855590811 -4.258333444595336 2.9150000810623173 1.610500021342887e-05 14.926666736602785 0.48666666448116308 17.241666793823246 1.0000000180025095e-35 13.081666946411135 2.589999914169312
decision_type=2 8 8 10 8 2 10 10 2 10 2 10 10 10 10 2 2 10 8 2 8 10 10 2 8 10 10 2 10 10
left_child=1 2 5 18 -3 22 -7 29 10 -10 11 -9 -11 15 -12 19 -17 21 20 23 -2 -13 -1 -14 25 26 -25 28 -26 -6
right_child=3 4 -4 -5 7 6 -8 8 9 12 14 17 13 -15 -16 16 -18 -19 -20 -21 -22 -23 -24 24 27 -27 -28 -29 -30 -31
leaf_value=-0.077370992240641506 -0.19913152605295181 -0.10077518643025894 0.10044273508287481 0.038207800771866807 0.15715696871518287 -0.16187467485666276 0.12626680056495007 0.008858644727374989 0.12521823627613565 0.10932393062047344 0.12772315400324658 0.20058157204339905 0.16477812954357693 0.067264758710142286 0.37492611682415011 0.19585578533510367 -0.14261361995468969 0.045194184570212292 -0.18739593143089991 0.11184704593101213 -0.068391831769554379 0.0871747296086363 0.0077660514819050648 -0.22847521848002958 0.16474925237397353 -0.022046142055963478 0.003921490628272295 -0.17076818540430905 -0.038724724862902425 0.053661263196159215
leaf_weight=600 82 83 230 171 292 40 134 553 234 188 142 225 21 283 50 60 23 258 121 43 2264 193 266 176 45 117 32 57 161 201
leaf_count=600 82 83 230 171 292 40 134 553 234 188 142 225 21 283 50 60 23 258 121 43 2264 193 266 176 45 117 32 57 161 201
internal_value=0 0.0397938 -0.00851199 -0.0710043 0.0576431 -0.0326078 0.0600274 0.0615635 0.0523621 0.0238962 0.0812087 0.0638849 0.00423675 -0.0151703 0.192099 -0.0469106 0.102063 0.108899 -0.0785743 -0.0658751 -0.0729616 0.148219 -0.0512204 -0.0784236 -0.0871094 -0.131279 -0.192722 -0.0325276 0.00572347 0.114961
internal_weight=0 4707 1270 2638 3437 1040 174 3354 2861 1440 1421 1229 1206 1018 192 735 83 676 2467 652 2346 418 866 609 588 325 208 263 206 493
internal_count=7345 4707 1270 2638 3437 1040 174 3354 2861 1440 1421 1229 1206 1018 192 735 83 676 2467 652 2346 418 866 609 588 325 208 263 206 493
shrinkage=0.1


Tree=25
num_leaves=31
num_cat=0
split_feature=58 28 24 20 64 61 21 0 56 20 72 0 55 56 65 77 70 58 59 64 59 55 59 59 20 63 24 71 67 55
split_gain=1714.24 352.571 229.821 223.451 160.395 174.527 159.501 158.429 199.475 171.915 147.091 148.504 143.015 182.061 165.984 233.014 284.224 221.326 173.487 156.611 153.508 149.614 144.992 139.422 180.78 135.607 150.826 147.332 192.238 135.045
threshold=3.8766666650772099 2.9150000810623173 2.5925000045390337e-05 3.3704998713801622e-05 8.9966664314270037 -3.1550000905990596 3.5824999940814457e-05 37.090000152587898 8.6749997138977069 1.6615000276942741e-05 1.0000000180025095e-35 33.094999313354499 0.20166666805744174 0.085000000894069686 13.658333301544191 5.5000000000000009 1.0000000180025095e-35 15.015000343322756 12.944999694824221 0.84999999403953563 16.291666984558109 20.326666831970218 4.5266668796539316 13.371666431427004 5.1474999054335065e-05 -0.74166667461395253 2.5289999939559497e-05 1.0000000180025095e-35 -4.3450000286102286 -4.8450000286102286
decision_type=8 8 2 2 10 8 2 2 10 2 2 2 8 10 10 2 2 8 10 8 10 10 10 10 2 8 2 2 10 10
left_child=2 -2 4 6 5 -1 12 9 -9 10 29 -12 22 -14 18 20 17 -17 21 -20 -16 -15 -3 24 25 -5 27 28 -27 -7
right_child=1 3 -4 23 -6 7 -8 8 -10 -11 11 -13 13 14 15 16 -18 -19 19 -21 -22 -23 -24 -25 -26 26 -28 -29 -30 -31
leaf_value=-0.10732156761663242 -0.066239378700453433 -0.0050529097364862821 0.074254648708577814 0.19165030866861343 -0.22852795646796303 0.13304956303174167 0.22616786338664868 -0.0059863852996739457 -0.25343946383594917 -0.10493950319110051 0.35588715225458145 -0.020615284144878388 0.14633073270705663 0.028041693884444736 0.10220804324359507 -0.068134823640910766 -0.24184723214483728 0.049601822971806653 0.2837446949282742 0.093920248462984024 0.0057665025545213062 0.20669656515121462 -0.29905594363808635 0.082007878707688164 -0.26424438582155213 -0.35093726768441824 0.048930504544715002 0.13830255421532975 -0.05325610924985124 -0.069842208890962251
leaf_weight=720 310 104 116 32 62 38 54 778 34 666 20 22 213 750 446 264 51 404 46 788 262 50 20 166 29 23 218 37 382 240
leaf_count=720 310 104 116 32 62 38 54 778 34 666 20 22 213 750 446 264 51 404 46 788 262 50 20 166 29 23 218 37 382 240
internal_value=0 0.0367892 -0.0634395 0.04415 -0.0696304 -0.0657179 0.0556533 -0.0490579 -0.0163477 -0.0759957 -0.0157564 0.158672 0.0529436 0.0569361 0.0507156 0.0257974 -0.0143013 0.00307117 0.0724771 0.10439 0.0665192 0.0392076 -0.0524728 -0.000618169 -0.0196416 -0.00939095 -0.0191384 -0.0527109 -0.0701615 -0.0421088
internal_weight=0 4649 2696 4339 2580 2518 3452 1798 812 986 320 42 3398 3274 3061 1427 719 668 1634 834 708 800 124 887 721 692 660 442 405 278
internal_count=7345 4649 2696 4339 2580 2518 3452 1798 812 986 320 42 3398 3274 3061 1427 719 668 1634 834 708 800 124 887 721 692 660 442 405 278
shrinkage=0.1


Tree=26
num_leaves=31
num_cat=0
split_feature=58 53 24 45 56 57 63 77 67 59 61 72 59 55 24 61 58 57 64 64 0 62 65 62 66 77 68 61 0 32
split_gain=1388.53 288.262 186.155 170.34 180.98 148.094 142.493 190.961 277.113 182.378 140.854 256.923 139.827 147.518 155.755 157.467 138.73 136.536 118.947 118.212 116.72 145.931 113.237 159.213 118.77 111.444 213.551 240.521 151.522 135.564
threshold=3.8766666650772099 4.988333225250245 2.5925000045390337e-05 6.8849999904632577 10.241666316986086 0.91333335638046276 3.935000061988831 5.5000000000000009 13.664999961853029 10.656666278839113 16.381666183471683 1.0000000180025095e-35 10.543333530426027 -0.14000000059604642 1.8355000065639618e-05 7.4949998855590829 -3.4983333349227901 3.1950000524520878 12.47666645050049 21.188333511352543 46.204999923706062 1.9216666221618655 10.97333335876465 16.134999275207523 12.351666927337648 5.5000000000000009 1.0000000180025095e-35 19.778333663940433 54.780000686645515 -4.6166665554046622
decision_type=8 8 2 10 8 10 10 2 10 8 10 2 10 10 2 8 10 10 10 8 2 8 10 10 10 2 2 8 2 10
left_child=2 -2 12 4 19 -6 -7 8 10 -9 -8 18 13 14 16 20 -1 -17 -12 25 -16 -22 -11 24 -24 28 27 29 -3 -27
right_child=1 3 -4 -5 5 6 7 9 -10 22 11 -13 -14 -15 15 17 -18 -19 -20 -21 21 -23 23 -25 -26 26 -28 -29 -30 -31
leaf_value=0.16051274908706548 -0.04706403866517278 0.010870622493012905 0.066829184073440989 0.086585189666467305 0.1540908469190079 0.12938897689867068 0.0016243783911910944 -0.091464925695990407 0.12399176199303082 0.084121307402952081 0.16062314434555069 0.41773264304451319 -0.24363730053106944 -0.023003968653233703 -0.098166839999771896 -0.041406942358783755 -0.0518251047283411 0.18695473406049942 -0.033027405728186882 0.15014701427853838 0.24994756389747966 -0.094218235888651442 -0.045515634842255778 -0.070905712281429528 0.074051750850760281 -0.15766089240343817 0.050563161170635473 0.16710951905697585 0.2909811130166054 0.013955498102185285
leaf_weight=50 409 561 116 683 123 171 582 172 445 215 58 23 42 766 1460 96 80 36 70 49 22 28 120 209 270 223 156 32 20 58
leaf_count=50 409 561 116 683 123 171 582 172 445 215 58 23 42 766 1460 96 80 36 70 49 22 28 120 209 270 223 156 32 20 58
internal_value=0 0.0331102 -0.0570955 0.040844 0.032061 0.0471438 0.0415102 0.0345659 0.0617435 0.00209626 0.0239529 0.110014 -0.0626673 -0.0596726 -0.0755237 -0.0838657 0.0298433 0.0208735 0.0547205 -0.00167275 -0.0930218 0.0572147 0.021866 -0.000479461 0.0372618 -0.00875768 -0.0450183 -0.0926564 0.020513 -0.122238
internal_weight=0 4649 2696 4240 3557 2458 2335 2164 1178 986 733 151 2580 2538 1772 1642 130 132 128 1099 1510 50 814 599 390 1050 469 313 581 281
internal_count=7345 4649 2696 4240 3557 2458 2335 2164 1178 986 733 151 2580 2538 1772 1642 130 132 128 1099 1510 50 814 599 390 1050 469 313 581 281
shrinkage=0.1


Tree=27
num_leaves=31
num_cat=0
split_feature=62 55 18 28 0 55 64 61 26 20 85 77 68 28 57 24 62 60 28 65 56 59 19 66 63 65 72 48 26 0
split_gain=1135.92 319.428 194.574 170.266 152.32 186.306 162.078 142.611 147.081 136.732 131.999 128.746 155.706 146.013 156.689 259.331 121.827 126.534 128.474 120.124 117.93 109.716 131.819 106.282 102.914 149.156 189.28 158.929 127.502 103.507
threshold=4.9166665077209482 1.6599999666213991 3.8750000385334722e-05 12.13000011444092 46.63499832153321 3.5249999761581425 17.138333320617679 9.2249999046325701 2.9185000130382836e-05 1.6424999557784762e-05 1.0000000180025095e-35 5.5000000000000009 1.0000000180025095e-35 -5.3550000190734854 -5.6983332633972159 2.0534999748633712e-05 5.6916666030883798 20.631667137146 21.753333091735843 -3.6383334398269649 -2.5716665983200069 -0.33166666328907007 1.5964999874995559e-05 5.8916666507720956 -3.0099999904632564 0.17333333194255832 1.0000000180025095e-35 9.3949999809265154 2.5844999981927689e-05 33.745000839233406
decision_type=8 8 2 8 2 10 8 8 2 2 2 2 2 10 10 2 10 2 10 8 8 8 2 10 10 10 2 10 2 2
left_child=2 7 4 10 6 23 11 8 -2 -9 -3 12 24 14 15 -13 -5 18 -18 -8 21 -16 -23 -6 -1 26 28 -28 -26 -27
right_child=1 3 -4 16 5 -7 19 9 -10 -11 -12 13 -14 -15 20 -17 17 -19 -20 -21 -22 22 -24 -25 25 29 27 -29 -30 -31
leaf_value=-0.10315579230135137 -0.069061755344672654 -0.015642736640237031 0.21006116941571237 0.11573844711455442 0.19833554370270579 -0.10571168051743558 -0.10669276215459988 -0.18126004815101626 -0.33731926733797252 0.11260604866547511 0.10644472701102495 -0.097454880708112174 -0.10673690853881189 -0.047667183434722302 -0.14293419673555979 0.23628028988838198 0.036861780614542684 0.14369318194123878 0.28506251829011098 0.081717817153548825 -0.19385918791704027 0.18231499612331392 -0.081555103138089183 -0.0063883020675608096 -0.015467687422017113 -0.22195263486355543 0.40883683810631438 0.027149532483890654 0.17328185681253672 -0.033924065886331366
leaf_weight=132 288 774 28 245 64 58 46 20 22 76 100 104 294 460 216 30 3018 119 21 128 253 25 78 42 242 32 24 20 42 344
leaf_count=132 288 774 28 245 64 58 46 20 22 76 100 104 294 460 216 30 3018 119 21 128 253 25 78 42 242 32 24 20 42 344
internal_value=0 0.0296497 -0.0521599 0.0376964 -0.0549474 0.0383774 -0.0611438 -0.0551181 -0.0880994 0.0513839 -0.00167392 -0.0681957 -0.0441415 -0.0915072 -0.120072 -0.0227381 0.047808 0.0425379 0.0385769 0.0319081 -0.142873 -0.102436 -0.017509 0.117219 -0.0221282 -0.00693555 0.0423467 0.235343 0.012446 -0.0499265
internal_weight=0 4683 2662 4277 2634 164 2470 406 310 96 874 2296 1130 1166 706 134 3403 3158 3039 174 572 319 103 106 836 704 328 44 284 376
internal_count=7345 4683 2662 4277 2634 164 2470 406 310 96 874 2296 1130 1166 706 134 3403 3158 3039 174 572 319 103 106 836 704 328 44 284 376
shrinkage=0.1


Tree=28
num_leaves=31
num_cat=0
split_feature=61 0 64 28 0 71 24 20 61 21 24 65 63 59 77 63 18 57 19 67 57 75 77 75 28 64 0 23 72 75
split_gain=935.493 250.028 200.378 162.229 138.136 174.051 176.892 142.087 137.218 127.791 143.216 124.71 247.174 122.74 128.366 203.694 173.44 114.922 113.523 113.277 109.73 144.344 132.816 114.492 119.757 133.46 178.697 127.284 152.238 112.833
threshold=6.8750000000000009 60.240001678466804 9.611666679382326 1.0000000180025095e-35 49.125000000000007 1.0000000180025095e-35 2.7314999897498641e-05 3.3704998713801622e-05 -3.3683332204818721 3.5824999940814457e-05 4.5999999201740145e-05 9.9149999618530291 5.3183333873748788 15.201666355133058 5.5000000000000009 15.063333511352541 3.3714999517542317e-05 -3.9183334112167354 4.1979999878094538e-05 9.3816666603088397 -5.6983332633972159 1.0000000180025095e-35 5.5000000000000009 1.0000000180025095e-35 -0.26333333551883692 2.2883332967758183 35.170000076293952 1.6775000403868038e-05 1.0000000180025095e-35 1.0000000180025095e-35
decision_type=8 2 8 8 2 2 2 2 10 2 2 8 10 8 2 10 2 8 2 10 10 2 2 2 8 10 2 2 2 2
left_child=1 2 8 -2 7 6 11 9 -1 10 -5 12 -6 14 -9 16 -16 -4 20 -7 21 -10 23 24 -22 26 27 28 -26 -24
right_child=3 -3 17 4 5 19 -8 13 18 -11 -12 -13 -14 -15 15 -17 -18 -19 -20 -21 22 -23 29 -25 25 -27 -28 -29 -30 -31
leaf_value=-0.093565237419078906 -0.080823916759372005 0.25749675274959632 -0.12884548715717922 0.053426053852422009 0.034937048385686738 -0.055201433930649524 0.10490306009891733 0.0073116738187564805 0.14495254846555847 0.19792181663857453 -0.043641428902393836 0.017348235330334114 -0.35228412906872109 0.10954936639201351 -0.39804760080037849 0.11145561597039622 -0.09718898259928789 0.042463684290270795 0.19685029027983547 -0.26305195544217086 -0.079402531201833881 -0.04845066212854067 -0.091713882624729431 -0.12158304608562807 -0.014309259179169261 -0.043847588527533295 0.10275380320694377 -0.14190545145135661 0.24483152438814823 0.060831673831965485
leaf_weight=620 124 28 44 2719 34 90 145 363 70 58 161 124 32 82 27 31 66 356 20 37 254 86 718 120 177 404 212 65 26 52
leaf_count=620 124 28 44 2719 34 90 145 363 70 58 161 124 32 82 27 31 66 356 20 37 254 86 718 120 177 404 212 65 26 52
internal_value=0 -0.0400378 -0.0426218 0.0318111 0.0353301 -0.0160696 0.0217221 0.0421013 -0.0520045 0.0509594 0.0479997 -0.0417582 -0.152807 -0.00363699 -0.0226951 -0.110537 -0.184535 0.0236197 -0.0403132 -0.115756 -0.042485 0.0383328 -0.0487017 -0.0286803 -0.0188839 -0.00149501 0.0341517 -0.0201156 0.0188812 -0.0814121
internal_weight=0 3252 3224 4093 3969 462 335 3507 2824 2938 2880 190 66 569 487 124 93 400 2204 127 2184 156 2028 1258 1138 884 480 268 203 770
internal_count=7345 3252 3224 4093 3969 462 335 3507 2824 2938 2880 190 66 569 487 124 93 400 2204 127 2184 156 2028 1258 1138 884 480 268 203 770
shrinkage=0.1


Tree=29
num_leaves=31
num_cat=0
split_feature=58 28 20 64 18 22 22 63 24 61 21 63 0 34 67 19 23 26 64 58 61 57 24 24 75 61 67 95 57 18
split_gain=769.432 186.81 124.756 123.074 117.761 113.81 124.505 123.86 109.034 100.313 94.0259 93.5745 93.0803 94.7207 129.254 129.956 161.461 143.171 166.506 102.294 134.629 108.864 139.632 101.848 132.531 161.262 180.56 97.3673 96.8016 97.7143
threshold=4.1749999523162851 -1.9999999999999998 3.4675000279094099e-05 15.181666374206545 3.3915001040440991e-05 3.66099993698299e-05 2.9284999982337471e-05 14.653333187103273 4.610500036505983e-05 15.613333225250246 4.1884999518515549e-05 5.3183333873748788 23.435000419616703 9.2766666412353533 19.653333663940433 2.0544999642879706e-05 4.7315001211245551e-05 3.1534998925053521e-05 15.231666564941408 11.128333568573 17.015000343322757 16.281666755676273 4.4775000787922188e-05 3.9575001210323542e-05 1.0000000180025095e-35 17.281666755676273 12.991666316986086 1.0000000180025095e-35 13.113333225250246 2.1814999854541387e-05
decision_type=8 8 2 10 2 2 2 8 2 10 2 8 2 10 8 2 2 2 10 8 8 8 2 2 2 10 10 2 10 2
left_child=3 -2 5 -1 11 6 8 -8 12 -10 -6 -4 -3 14 15 17 23 19 -19 20 -14 28 -23 24 27 26 -26 -17 -21 -30
right_child=1 2 4 -5 10 -7 7 -9 9 -11 -12 -13 13 -15 -16 16 -18 18 -20 21 -22 22 -24 -25 25 -27 -28 -29 29 -31
leaf_value=-0.04415947497677903 -0.096232848588918007 -0.071881385027047467 -0.14460947035625579 0.18329726768036683 0.026473928717965847 0.17680955923029357 -0.038945729580634705 0.056142925229220313 -0.2261161552420978 0.044388571087844102 -0.13707563894491423 -0.0027886390116001513 0.040570369646286027 0.017909940646005693 -0.015714811454091319 0.12204701983555857 0.22798621346811199 0.17985691083213468 -0.04519734287427532 0.0060482480416172435 0.27023209452886005 0.0012621406291564593 0.21757355424036323 -0.015966302745017365 -0.022656225785613063 -0.089523891649063103 0.21248321099387063 5.910670040302897e-05 0.019148794600838112 -0.17177556998142463
leaf_weight=2700 124 68 100 24 469 56 417 204 29 26 38 87 213 839 217 631 77 122 45 133 29 139 38 104 69 83 62 73 38 91
leaf_count=2700 124 68 100 24 469 56 417 204 29 26 38 87 213 839 217 631 77 122 45 133 29 139 38 104 69 83 62 73 38 91
internal_value=0 0.0248499 0.0281886 -0.0421555 -0.0108014 0.0353038 0.033189 -0.00770888 0.0413136 -0.0982412 0.0142158 -0.0786287 0.043813 0.0464328 0.0574913 0.0656504 0.0883445 0.0362389 0.119214 0.0158913 0.0680918 -0.0128844 0.0477019 0.0778236 0.088449 0.0195336 0.0886311 0.109398 -0.0538149 -0.115534
internal_weight=0 4621 4497 2724 694 3803 3747 621 3126 55 507 187 3071 3003 2164 1947 1099 848 167 681 242 439 177 1022 918 214 131 704 262 129
internal_count=7345 4621 4497 2724 694 3803 3747 621 3126 55 507 187 3071 3003 2164 1947 1099 848 167 681 242 439 177 1022 918 214 131 704 262 129
shrinkage=0.1


Tree=30
num_leaves=31
num_cat=0
split_feature=62 0 64 77 24 72 67 67 0 61 0 27 61 21 26 77 28 68 57 24 62 64 32 22 62 58 61 21 29 26
split_gain=645.603 241.117 228.398 123.016 193.256 171.733 209.839 170.711 135.364 170.049 138.397 127.728 123.278 121.992 171.326 121.486 169.53 184.063 235.461 122.413 117.179 115.752 115.493 140.152 124.744 102.381 138.147 114.423 145.941 99.3702
threshold=10.081666469573976 60.240001678466804 12.418333530426027 5.5000000000000009 4.500500108406414e-05 1.0000000180025095e-35 12.628333091735842 15.488333225250246 44.48500061035157 17.281666755676273 43.829999923706062 5.8350000472273684e-05 16.555000305175785 2.8124999516876418e-05 3.0395000067073855e-05 5.5000000000000009 -5.3033335208892813 1.0000000180025095e-35 12.34333372116089 1.8355000065639618e-05 11.641666889190676 15.231666564941408 2.589999914169312 2.0765000044775664e-05 10.491666316986086 11.493333339691164 18.066666603088382 2.6875000003201425e-05 14.699999809265138 3.1325000236392959e-05
decision_type=8 2 8 2 2 2 10 8 2 10 2 2 10 2 2 2 10 2 8 2 10 10 10 2 10 10 10 2 8 2
left_child=1 2 15 5 8 6 25 -6 9 11 29 13 -7 22 20 -1 17 18 -17 -19 -15 -16 23 -5 -25 -2 27 -27 -29 -11
right_child=3 -3 -4 4 7 12 -8 -9 -10 10 -12 -13 -14 14 21 16 -18 19 -20 -21 -22 -23 -24 24 -26 26 -28 28 -30 -31
leaf_value=-0.023496202298324734 0.04737557387175529 0.30072769461707638 0.027624228584002639 -0.064219812356999945 -0.21408894772250808 0.091920886921831313 0.067928232535559976 -0.020840633109856892 -0.034273539751046994 -0.073163302496282598 0.23446435958147049 -0.044670357731255619 0.26985377287864687 0.11783474734561011 0.11252324817864323 -0.13619808237611628 -0.020619365587094606 0.18460799521551685 0.13093963136297784 -0.043689369287633117 -0.14503072367074926 0.0078567041903152123 0.045339235253935767 0.38847528199354808 0.14848404227512646 0.047443825758195356 0.067801476238916317 -0.018616603311294548 -0.18746878175526605 0.041374584760550143
leaf_weight=1678 190 22 558 28 62 176 862 174 319 234 20 110 50 22 224 576 572 26 35 243 74 200 184 24 222 56 84 91 117 112
leaf_count=1678 190 22 558 28 62 176 862 174 319 234 20 110 50 22 224 576 572 26 35 243 74 200 184 24 222 56 84 91 117 112
internal_value=0 -0.0293462 -0.0313152 0.0299517 0.0134017 0.0504 0.0373427 -0.0716093 0.0247173 0.0376596 -0.0213032 0.0574945 0.131287 0.0689854 0.0358397 -0.0418226 -0.0630015 -0.0905499 -0.120896 -0.0216235 -0.0847907 0.0631522 0.106618 0.147769 0.171898 -0.0116625 -0.0438959 -0.079436 -0.113596 -0.0360875
internal_weight=0 3710 3688 3635 2009 1626 1400 236 1773 1454 366 1088 226 978 520 3130 1452 880 611 269 96 424 458 274 246 538 348 264 208 346
internal_count=7345 3710 3688 3635 2009 1626 1400 236 1773 1454 366 1088 226 978 520 3130 1452 880 611 269 96 424 458 274 246 538 348 264 208 346
shrinkage=0.1


Tree=31
num_leaves=31
num_cat=0
split_feature=60 55 56 57 64 65 45 19 0 26 77 59 67 55 57 24 64 66 61 72 64 67 26 26 0 55 60 24 47 26
split_gain=523.998 161.828 115.403 118.265 129.174 118.895 115.141 103.756 103.198 93.653 90.8532 163.905 154.997 151.457 138.488 162.178 137.268 121.866 110.613 162.326 106.899 97.6061 93.1375 123.88 112.876 91.7599 89.3043 85.6214 85.4368 85.1159
threshold=4.118333339691163 -0.10166666656732558 -2.8833334445953365 1.0616666674613955 2.4683333635330205 14.025000095367433 6.8849999904632577 3.3005000659613877e-05 59.119998931884773 2.6245000299240932e-05 5.5000000000000009 17.994999885559086 13.404999732971193 13.746666431427004 18.039999961853031 4.4385000364854939e-05 12.338333606719972 13.336666584014894 16.251667022705082 1.0000000180025095e-35 14.451666355133058 19.653333663940433 2.8485000257205687e-05 3.113499951723498e-05 42.385000228881843 8.9416666030883807 10.326666831970217 1.9805000192718584e-05 10.751666545867922 3.046500023629051e-05
decision_type=2 8 10 8 8 8 10 2 2 2 2 8 10 8 10 2 8 10 10 2 10 10 2 2 2 10 2 2 8 2
left_child=8 7 -3 -4 5 -5 10 9 -1 -2 12 13 18 14 15 16 27 29 22 -20 25 -14 -6 -24 -25 -18 -13 -12 -17 -15
right_child=1 2 3 4 6 -7 -8 -9 -10 -11 11 26 21 17 -16 28 20 -19 19 -21 -22 -23 23 24 -26 -27 -28 -29 -30 -31
leaf_value=-0.036688447922569617 -0.031732495019043037 0.089120901251479867 -0.082347038420589852 0.14124009851932626 -0.092494708553078731 -0.10791191083421424 0.060255439274038008 0.029191630171692892 0.1715951733562785 -0.18122832982335241 0.068586621539933348 -0.066502186808396466 0.074566324661842848 -0.002017451491023804 0.10009883006616516 -0.090508363126880598 0.22278875118354335 -0.047055348176033983 0.036838761064485255 0.3184665232896805 -0.053358449288712376 -0.070394603937864314 0.018570543362965385 -0.017700982712588069 -0.24049781025261494 0.014846367161307071 0.088780929172475251 -0.14891763746977041 -0.26458432493510387 0.08402683939455094
leaf_weight=2694 88 264 108 148 122 22 597 92 24 80 21 44 654 234 49 54 32 245 139 24 136 50 615 59 37 63 234 131 59 226
leaf_count=2694 88 264 108 148 122 22 597 92 24 80 21 44 654 234 49 54 32 245 139 24 136 50 615 59 37 63 234 131 59 226
internal_value=0 0.0204712 0.0250345 0.0209109 0.0237024 0.108997 0.0199115 -0.0561734 -0.0348493 -0.102921 0.0124501 -0.00524548 0.0283554 -0.020691 -0.060281 -0.076125 -0.0450655 0.00991407 0.00296941 0.0783054 0.00349702 0.0642708 -0.0117722 0.00207891 -0.103571 0.0848901 0.0642037 -0.118868 -0.181398 0.0402565
internal_weight=0 4627 4367 4103 3995 170 3825 260 2718 168 3228 1528 1700 1250 545 496 383 705 996 163 231 704 833 711 96 95 278 152 113 460
internal_count=7345 4627 4367 4103 3995 170 3825 260 2718 168 3228 1528 1700 1250 545 496 383 705 996 163 231 704 833 711 96 95 278 152 113 460
shrinkage=0.1


Tree=32
num_leaves=31
num_cat=0
split_feature=62 0 64 61 61 65 57 57 64 58 55 0 58 22 55 61 65 70 64 29 46 62 59 62 26 36 57 24 56 66
split_gain=439.444 174.393 157.184 98.3493 97.4642 294.049 112.285 112.236 107.995 157.352 115.076 96.7904 94.1441 133.824 127.485 127.579 124.604 129.923 117.001 111.335 110.034 100.442 98.7376 117.009 117.952 91.8951 90.8405 125.015 105.099 182.103
threshold=10.081666469573976 60.240001678466804 12.418333530426027 -3.3683332204818721 -1.1316666603088377 7.055000066757203 -0.45999999344348902 5.0750000476837167 2.7366666793823247 -0.69499999284744252 9.8916668891906756 36.635000228881843 11.38000011444092 2.0700000277429357e-05 17.251666069030765 23.328333854675297 13.551666736602785 1.0000000180025095e-35 2.4683333635330205 6.243333339691163 15.035000324249269 18.618332862854007 13.651666641235353 13.016666889190676 3.0774999686400413e-05 -5.2933332920074454 -1.8566666841506956 1.844500002334826e-05 -2.4933333396911617 -1.3600000143051145
decision_type=8 2 8 10 10 10 8 10 10 8 10 2 10 2 10 8 10 2 8 10 8 8 10 8 2 10 10 2 10 10
left_child=1 2 3 -1 5 26 -6 8 9 -8 11 -10 13 -2 15 21 18 -18 -14 -16 -17 -15 23 -20 -25 -11 27 -5 -29 -30
right_child=12 -3 -4 4 6 -7 7 -9 10 25 -12 -13 16 14 19 20 17 -19 22 -21 -22 -23 -24 24 -26 -27 -28 28 29 -31
leaf_value=-0.07169230820268474 -0.1058162710945388 0.25650065371089359 0.023008982619766388 0.1890419121145418 -0.072649134263987863 0.36400470293380999 -0.047922741210883642 -0.057785442270675391 -0.10614235869413891 0.18257852126373333 -0.23028661964031369 0.01446814380726618 0.18477286476641896 0.044094010289754848 0.20271497141022579 0.016895144466649404 0.00054847135099887886 -0.10729553776235129 -0.089030839830991776 0.049583029049018061 0.30741364588029685 -0.04375061437489134 0.053597441714400285 0.069553854898988923 -0.052014188402972651 0.037194625851424301 -0.064979763460966442 -0.0315428029682066 -0.029156479156239236 0.17752985335432758
leaf_weight=582 56 22 558 38 636 22 96 470 86 89 26 294 50 906 97 22 985 126 126 93 32 152 650 212 128 85 198 336 94 78
leaf_count=582 56 22 558 38 636 22 96 470 86 89 26 294 50 906 97 22 985 126 126 93 32 152 650 212 128 85 198 336 94 78
internal_value=0 -0.0242115 -0.025886 -0.0346027 -0.026131 0.00369966 -0.0389538 -0.0202537 0.00584081 0.0548535 -0.0267538 -0.0128279 0.024711 0.04555 0.0520604 0.0391259 0.0122827 -0.0116823 0.0351172 0.127761 0.189054 0.0314736 0.0284122 -0.00671735 0.0237871 0.111558 -0.00695452 0.0140876 0.00100047 0.0645734
internal_weight=0 3710 3688 3130 2548 766 1782 1146 676 270 406 380 3635 1358 1302 1112 2277 1111 1166 190 54 1058 1116 466 340 174 744 546 508 172
internal_count=7345 3710 3688 3130 2548 766 1782 1146 676 270 406 380 3635 1358 1302 1112 2277 1111 1166 190 54 1058 1116 466 340 174 744 546 508 172
shrinkage=0.1


Tree=33
num_leaves=31
num_cat=0
split_feature=58 28 20 59 0 23 0 31 56 59 20 56 24 72 22 22 63 64 18 22 61 62 22 59 65 26 19 72 57 26
split_gain=368.951 99.8375 89.4957 160.448 85.7272 121.791 97.8318 129.688 115.566 154.208 123.662 98.9421 91.8073 106.462 80.014 106.619 90.6436 80.0975 115.12 90.1536 79.2284 90.1294 78.1585 77.7743 87.2223 77.3862 73.455 102.177 77.7742 72.583
threshold=4.1749999523162851 -1.9999999999999998 5.1474999054335065e-05 14.521667003631594 37.090000152587898 1.5619999430782631e-05 39.18499946594239 -2.9000000953674312 6.8949999809265146 0.14833333343267444 1.7434999790566511e-05 0.49166667461395269 1.9074999727308754e-05 1.0000000180025095e-35 3.66099993698299e-05 2.9284999982337471e-05 11.853333473205568 12.086666584014894 3.3844999052234932e-05 3.2074998671305373e-05 5.7233333587646493 13.699999809265138 2.8845000088040255e-05 -1.9950000047683714 -2.2583333253860469 3.0084999707469254e-05 3.0920000426704071e-05 1.0000000180025095e-35 3.1950000524520878 3.029500021511922e-05
decision_type=8 8 2 10 2 2 2 10 10 10 2 10 2 2 2 2 8 10 2 2 8 10 2 10 10 2 2 2 10 2
left_child=4 -2 14 -4 5 12 7 11 9 22 20 -6 -1 23 15 -3 17 18 -17 25 -11 -22 -8 24 -14 -19 27 28 -12 -18
right_child=1 2 3 -5 6 -7 8 -9 -10 10 26 -13 13 -15 -16 16 29 19 -20 -21 21 -23 -24 -25 -26 -27 -28 -29 -30 -31
leaf_value=-0.033113380480527921 -0.071309806151510849 0.027004058695198688 -0.22986290516281449 0.11115838316353886 0.054824437712167585 -0.067681109218417787 -0.05895807660428512 -0.03563289504381828 -0.12967056216060208 0.054593002889305353 -0.04708935720014519 0.28127304766859329 0.027555424466263502 0.25616947930644857 0.10397017571968925 -0.14653672830900177 -0.033711178698927487 0.033797574348362357 0.0077452109758987244 0.11172778814171369 0.37892817492512143 0.085614968799054628 0.10801193142930668 -0.065377192079059551 0.26434964474290606 -0.13100966097720498 0.057821608154178673 0.11053466874485214 -0.26117167189717294 0.045116930306373038
leaf_weight=532 124 3449 37 22 43 922 428 64 86 52 112 35 70 22 114 133 186 58 76 52 22 20 30 62 20 56 148 36 20 314
leaf_count=532 124 3449 37 22 43 922 428 64 86 52 112 35 70 22 114 133 186 58 76 52 22 20 30 62 20 56 148 36 20 314
internal_value=0 0.0172077 0.0196485 -0.102702 -0.0291913 -0.043747 -0.00757017 0.0698697 -0.0190969 -0.0081414 0.0364072 0.156436 -0.0124902 0.0505645 0.0212751 0.0190949 -0.0120809 -0.0492458 -0.0904342 0.00261183 0.137102 0.239255 -0.0480212 0.0208058 0.0801764 -0.0471604 0.00645381 -0.0387988 -0.0795261 0.0157929
internal_weight=0 4621 4497 59 2724 1628 1096 142 954 868 410 78 706 174 4438 4324 875 375 209 166 94 42 458 152 90 114 316 168 132 500
internal_count=7345 4621 4497 59 2724 1628 1096 142 954 868 410 78 706 174 4438 4324 875 375 209 166 94 42 458 152 90 114 316 168 132 500
shrinkage=0.1


Tree=34
num_leaves=31
num_cat=0
split_feature=65 55 55 77 74 65 28 58 24 57 58 57 23 21 41 56 53 23 61 62 0 0 63 48 70 59 66 26 58 0
split_gain=301.818 114.62 102.636 94.5548 157.993 113.011 178.248 179.515 177.099 136.165 112.909 105.056 101.735 94.0479 90.7853 89.9201 89.8754 89.7352 94.0719 89.6815 81.8988 105.551 90.2454 88.1143 77.7848 76.8473 97.7497 113.376 101.552 114.215
